<?xml version="1.0"?>
<opencv_storage>
<opencv_ml_svm>
  <format>3</format>
  <svmType>C_SVC</svmType>
  <kernel>
    <type>LINEAR</type></kernel>
  <C>1.</C>
  <term_criteria><iterations>100</iterations></term_criteria>
  <var_count>4096</var_count>
  <class_count>2</class_count>
  <class_labels type_id="opencv-matrix">
    <rows>2</rows>
    <cols>1</cols>
    <dt>i</dt>
    <data>
      0 1</data></class_labels>
  <sv_total>1</sv_total>
  <support_vectors>
    <_>
      5.25160427e-20 -7.62329653e-20 -1.52465931e-19 -7.62329653e-20
      -1.52465931e-19 -7.62329653e-20 5.25160427e-20 -7.62329653e-20
      -7.62329653e-20 -7.62329653e-20 1.81265051e-19 -7.62329653e-20
      1.81265051e-19 -7.62329653e-20 -8.63973606e-20 -7.62329653e-20
      -7.62329653e-20 -7.62329653e-20 -7.62329653e-20 -7.62329653e-20
      5.25160427e-20 -7.62329653e-20 -7.62329653e-20 -7.62329653e-20
      -4.74338450e-20 -7.62329653e-20 8.13151629e-20 -7.62329653e-20
      3.04931861e-20 -7.62329653e-20 1.81265051e-19 -7.62329653e-20
      1.81265051e-19 -7.62329653e-20 9.31736242e-20 -7.62329653e-20
      -7.62329653e-20 -7.62329653e-20 -4.74338450e-20 -7.62329653e-20
      8.13151629e-20 -7.62329653e-20 3.04931861e-20 -7.62329653e-20
      -7.62329653e-20 -7.62329653e-20 -7.62329653e-20 -7.62329653e-20
      -7.62329653e-20 -7.62329653e-20 -7.62329653e-20 -7.62329653e-20
      -7.62329653e-20 -7.62329653e-20 -7.62329653e-20 -7.62329653e-20
      1.35525272e-20 -7.62329653e-20 -4.74338450e-20 -7.62329653e-20
      8.13151629e-20 -7.62329653e-20 8.13151629e-20 -7.62329653e-20
      2.80394801e-04 4.16586554e-04 4.08575288e-04 -7.62329653e-20
      -1.36191753e-04 -7.62329653e-20 -7.62329653e-20 -7.62329653e-20
      -5.84823429e-04 -7.62329653e-20 -7.62329653e-20 -7.62329653e-20
      1.36191753e-04 -7.62329653e-20 -7.62329653e-20 -7.62329653e-20
      5.52778307e-04 -7.62329653e-20 -1.20169199e-04 -7.62329653e-20
      1.20169199e-04 -7.62329653e-20 -3.20451181e-05 -7.62329653e-20
      -9.61353580e-05 -7.62329653e-20 1.20169199e-04 -7.62329653e-20
      -1.28180473e-04 -7.62329653e-20 -8.81240776e-05 -7.62329653e-20
      1.28180473e-04 -7.62329653e-20 -7.62329653e-20 -7.62329653e-20
      8.01127953e-06 -7.62329653e-20 1.20169199e-04 -7.62329653e-20
      -7.62329653e-20 -7.62329653e-20 -1.20169199e-04 -7.62329653e-20
      1.20169199e-04 -7.62329653e-20 -7.62329653e-20 -7.62329653e-20
      -1.20169199e-04 -7.62329653e-20 1.20169199e-04 -7.62329653e-20
      -7.62329653e-20 -7.62329653e-20 -1.20169199e-04 -7.62329653e-20
      1.20169199e-04 -7.62329653e-20 -7.62329653e-20 -7.62329653e-20
      -7.62329653e-20 -7.62329653e-20 1.20169199e-04 -7.62329653e-20
      -7.62329653e-20 -7.62329653e-20 -7.62329653e-20 -7.62329653e-20
      -7.62329653e-20 -7.62329653e-20 -7.62329653e-20 -7.62329653e-20
      -7.62329653e-20 -7.62329653e-20 -7.62329653e-20 -7.62329653e-20
      -7.62329653e-20 -7.62329653e-20 -7.62329653e-20 -7.62329653e-20
      -7.62329653e-20 -7.62329653e-20 -7.62329653e-20 -7.62329653e-20
      -7.62329653e-20 -7.62329653e-20 -7.62329653e-20 -7.62329653e-20
      -7.62329653e-20 -7.62329653e-20 -7.62329653e-20 -7.62329653e-20
      -7.62329653e-20 -7.62329653e-20 -7.62329653e-20 -7.62329653e-20
      -7.62329653e-20 -7.62329653e-20 -7.62329653e-20 -7.62329653e-20
      -7.62329653e-20 -7.62329653e-20 -7.62329653e-20 -7.62329653e-20
      -7.62329653e-20 -7.62329653e-20 -7.62329653e-20 -7.62329653e-20
      -7.62329653e-20 -7.62329653e-20 -7.62329653e-20 -7.62329653e-20
      -7.62329653e-20 -7.62329653e-20 -7.62329653e-20 -7.62329653e-20
      -7.62329653e-20 -7.62329653e-20 -7.62329653e-20 -7.62329653e-20
      -7.62329653e-20 -7.62329653e-20 -7.62329653e-20 -7.62329653e-20
      -7.62329653e-20 -7.62329653e-20 -7.62329653e-20 -7.62329653e-20
      -7.62329653e-20 -7.62329653e-20 -7.62329653e-20 -7.62329653e-20
      -7.62329653e-20 -7.62329653e-20 -7.62329653e-20 -7.62329653e-20
      -7.62329653e-20 -7.62329653e-20 -7.62329653e-20 -7.62329653e-20
      -7.62329653e-20 -7.62329653e-20 -7.62329653e-20 -7.62329653e-20
      -7.62329653e-20 -7.62329653e-20 -7.62329653e-20 -7.62329653e-20
      -7.62329653e-20 -7.62329653e-20 -7.62329653e-20 -7.62329653e-20
      -7.62329653e-20 -7.62329653e-20 -7.62329653e-20 -7.62329653e-20
      -7.62329653e-20 -7.62329653e-20 -7.62329653e-20 -7.62329653e-20
      -7.62329653e-20 -7.62329653e-20 -7.62329653e-20 -7.62329653e-20
      -7.62329653e-20 -7.62329653e-20 -7.62329653e-20 -7.62329653e-20
      -7.62329653e-20 -7.62329653e-20 -7.62329653e-20 -7.62329653e-20
      -7.62329653e-20 -7.62329653e-20 -7.62329653e-20 -7.62329653e-20
      -7.62329653e-20 -7.62329653e-20 -7.62329653e-20 -7.62329653e-20
      -7.62329653e-20 -7.62329653e-20 -7.62329653e-20 -7.62329653e-20
      -7.62329653e-20 -7.62329653e-20 -7.62329653e-20 -7.62329653e-20
      -7.62329653e-20 -7.62329653e-20 -7.62329653e-20 -7.62329653e-20
      -3.76530166e-04 -8.89252056e-04 -1.01743254e-03 -2.00281997e-04
      5.44767012e-04 5.60789595e-05 1.68236875e-04 5.76812134e-04
      3.76530166e-04 2.72383506e-04 5.04710653e-04 1.36191753e-04
      -5.28744480e-04 8.81240776e-05 -5.52778307e-04 -7.62329653e-20
      -6.72947499e-04 3.36473749e-04 5.12721890e-04 -2.56360945e-04
      3.36473749e-04 -7.04992621e-04 1.60225591e-05 1.01743254e-03
      -7.62329653e-20 5.68800897e-04 8.81240776e-05 7.29026448e-04
      6.48913672e-04 -7.62329653e-20 -7.62329653e-20 -7.62329653e-20
      -7.62329653e-20 -7.62329653e-20 -7.62329653e-20 -7.62329653e-20
      -7.62329653e-20 -7.62329653e-20 -7.62329653e-20 -7.62329653e-20
      -7.62329653e-20 -7.62329653e-20 -7.62329653e-20 -7.62329653e-20
      -7.62329653e-20 -7.62329653e-20 -7.62329653e-20 -7.62329653e-20
      -7.62329653e-20 -7.62329653e-20 -7.62329653e-20 -7.62329653e-20
      -7.62329653e-20 -7.62329653e-20 -7.62329653e-20 -7.62329653e-20
      -7.62329653e-20 -7.62329653e-20 -7.62329653e-20 -7.62329653e-20
      -7.62329653e-20 -7.62329653e-20 -7.62329653e-20 -7.62329653e-20
      -7.62329653e-20 -7.62329653e-20 -7.62329653e-20 -7.62329653e-20
      -7.62329653e-20 -7.62329653e-20 -7.62329653e-20 -7.62329653e-20
      -7.62329653e-20 -7.62329653e-20 -7.62329653e-20 -7.62329653e-20
      -7.62329653e-20 -7.62329653e-20 -7.62329653e-20 -7.62329653e-20
      -7.62329653e-20 -7.62329653e-20 -7.62329653e-20 -7.62329653e-20
      -7.62329653e-20 -7.62329653e-20 -7.62329653e-20 -7.62329653e-20
      -7.62329653e-20 -7.62329653e-20 -7.62329653e-20 -7.62329653e-20
      -7.62329653e-20 -7.62329653e-20 -7.62329653e-20 -7.62329653e-20
      -7.62329653e-20 -7.62329653e-20 -7.62329653e-20 -7.62329653e-20
      -7.62329653e-20 -7.62329653e-20 -7.62329653e-20 -7.62329653e-20
      -7.62329653e-20 -7.62329653e-20 -7.62329653e-20 -7.62329653e-20
      -7.62329653e-20 -7.62329653e-20 -7.62329653e-20 -7.62329653e-20
      -7.62329653e-20 -7.62329653e-20 -7.62329653e-20 -7.62329653e-20
      -7.62329653e-20 -7.62329653e-20 -7.62329653e-20 -7.62329653e-20
      -7.62329653e-20 -7.62329653e-20 -7.62329653e-20 -7.62329653e-20
      -7.62329653e-20 -7.62329653e-20 -7.62329653e-20 -7.62329653e-20
      -7.62329653e-20 -7.62329653e-20 -7.62329653e-20 -7.62329653e-20
      -7.62329653e-20 -7.62329653e-20 -7.62329653e-20 -7.62329653e-20
      -7.62329653e-20 -7.62329653e-20 -7.62329653e-20 -7.62329653e-20
      -7.62329653e-20 -7.62329653e-20 -7.62329653e-20 -7.62329653e-20
      -7.62329653e-20 -7.62329653e-20 -7.62329653e-20 -7.62329653e-20
      -7.62329653e-20 -7.62329653e-20 -7.62329653e-20 -7.62329653e-20
      -7.62329653e-20 -7.62329653e-20 -7.62329653e-20 -7.62329653e-20
      -7.62329653e-20 -7.62329653e-20 -7.62329653e-20 -7.62329653e-20
      -7.62329653e-20 -7.62329653e-20 -7.62329653e-20 -7.62329653e-20
      -7.62329653e-20 -7.62329653e-20 -7.62329653e-20 -7.62329653e-20
      -7.62329653e-20 -7.62329653e-20 -7.62329653e-20 -7.62329653e-20
      -7.62329653e-20 -7.62329653e-20 -7.62329653e-20 -7.62329653e-20
      -7.62329653e-20 -7.62329653e-20 -7.62329653e-20 -7.62329653e-20
      -7.62329653e-20 -7.62329653e-20 -7.62329653e-20 -7.62329653e-20
      -7.62329653e-20 -7.62329653e-20 -7.62329653e-20 -7.62329653e-20
      -7.62329653e-20 -7.62329653e-20 -7.62329653e-20 -7.62329653e-20
      -7.62329653e-20 -7.62329653e-20 -7.62329653e-20 -7.62329653e-20
      -7.62329653e-20 -7.62329653e-20 -7.62329653e-20 -7.62329653e-20
      -7.62329653e-20 -7.62329653e-20 -7.62329653e-20 -7.62329653e-20
      -7.62329653e-20 -7.62329653e-20 -7.62329653e-20 -7.62329653e-20
      -7.62329653e-20 -7.62329653e-20 -7.62329653e-20 -7.62329653e-20
      -7.62329653e-20 -7.62329653e-20 -7.62329653e-20 -7.62329653e-20
      -7.62329653e-20 -7.62329653e-20 -7.62329653e-20 -7.62329653e-20
      -7.62329653e-20 -7.62329653e-20 -7.62329653e-20 -7.62329653e-20
      -7.62329653e-20 -7.62329653e-20 -7.62329653e-20 -7.62329653e-20
      -7.62329653e-20 -7.62329653e-20 -7.62329653e-20 -7.62329653e-20
      -7.62329653e-20 -7.62329653e-20 -7.62329653e-20 -7.62329653e-20
      -7.62329653e-20 -7.62329653e-20 -7.62329653e-20 -7.62329653e-20
      -7.62329653e-20 -7.62329653e-20 -7.62329653e-20 -7.62329653e-20
      -7.62329653e-20 -7.62329653e-20 -7.62329653e-20 -7.62329653e-20
      -7.62329653e-20 -7.62329653e-20 -7.62329653e-20 -7.62329653e-20
      -7.62329653e-20 -7.62329653e-20 -7.62329653e-20 -7.62329653e-20
      -7.62329653e-20 -7.62329653e-20 -7.62329653e-20 -7.62329653e-20
      -7.62329653e-20 -7.62329653e-20 -7.62329653e-20 -7.62329653e-20
      -7.62329653e-20 -7.62329653e-20 -7.62329653e-20 -7.62329653e-20
      -7.62329653e-20 -7.62329653e-20 -7.62329653e-20 -7.62329653e-20
      -7.62329653e-20 -7.62329653e-20 -7.62329653e-20 -7.62329653e-20
      -7.62329653e-20 -7.62329653e-20 -7.62329653e-20 -7.62329653e-20
      -7.62329653e-20 -7.62329653e-20 -7.62329653e-20 -7.62329653e-20
      -7.62329653e-20 -7.62329653e-20 -7.62329653e-20 -7.62329653e-20
      -7.62329653e-20 -7.62329653e-20 -7.62329653e-20 -7.62329653e-20
      -7.62329653e-20 -7.62329653e-20 -7.62329653e-20 -7.62329653e-20
      -7.62329653e-20 -7.62329653e-20 -7.62329653e-20 -7.62329653e-20
      -7.62329653e-20 -7.62329653e-20 -7.62329653e-20 -7.62329653e-20
      -7.62329653e-20 -7.62329653e-20 -7.62329653e-20 -7.62329653e-20
      -7.62329653e-20 -7.62329653e-20 -7.62329653e-20 -7.62329653e-20
      -7.62329653e-20 -7.62329653e-20 -7.62329653e-20 -7.62329653e-20
      -7.62329653e-20 -7.62329653e-20 -7.62329653e-20 -7.62329653e-20
      -7.62329653e-20 -7.62329653e-20 -7.62329653e-20 -7.62329653e-20
      -7.62329653e-20 -7.62329653e-20 -7.62329653e-20 -7.62329653e-20
      -7.62329653e-20 -7.62329653e-20 -7.62329653e-20 -7.62329653e-20
      -7.62329653e-20 -7.62329653e-20 -7.62329653e-20 -7.62329653e-20
      -7.62329653e-20 -7.62329653e-20 -7.62329653e-20 -7.62329653e-20
      -7.62329653e-20 -7.62329653e-20 -7.62329653e-20 -7.62329653e-20
      -7.62329653e-20 -7.62329653e-20 -7.62329653e-20 -7.62329653e-20
      -7.62329653e-20 -7.62329653e-20 -7.62329653e-20 -7.62329653e-20
      -7.62329653e-20 -7.62329653e-20 -7.62329653e-20 -7.62329653e-20
      -7.62329653e-20 -7.62329653e-20 -7.62329653e-20 -7.62329653e-20
      -7.62329653e-20 -7.62329653e-20 -7.62329653e-20 -7.62329653e-20
      -7.62329653e-20 -7.62329653e-20 -7.62329653e-20 -7.62329653e-20
      -7.62329653e-20 -7.62329653e-20 -7.62329653e-20 -7.62329653e-20
      -7.62329653e-20 -7.62329653e-20 -7.62329653e-20 -7.62329653e-20
      -7.62329653e-20 -7.62329653e-20 -7.62329653e-20 -7.62329653e-20
      -7.62329653e-20 -7.62329653e-20 -7.62329653e-20 -7.62329653e-20
      -7.62329653e-20 -7.62329653e-20 -7.62329653e-20 -7.62329653e-20
      -7.62329653e-20 -7.62329653e-20 -7.62329653e-20 -7.62329653e-20
      -7.62329653e-20 -7.62329653e-20 -7.62329653e-20 -7.62329653e-20
      -7.62329653e-20 -7.62329653e-20 -7.62329653e-20 -7.62329653e-20
      -7.62329653e-20 -7.62329653e-20 -7.62329653e-20 -7.62329653e-20
      -7.62329653e-20 -7.62329653e-20 -7.62329653e-20 -7.62329653e-20
      -7.62329653e-20 -7.62329653e-20 -7.62329653e-20 -7.62329653e-20
      -7.62329653e-20 -7.62329653e-20 -7.62329653e-20 -7.62329653e-20
      -7.62329653e-20 -7.62329653e-20 -7.62329653e-20 -7.62329653e-20
      -7.62329653e-20 -7.62329653e-20 -7.62329653e-20 -7.62329653e-20
      -7.62329653e-20 -7.62329653e-20 -7.62329653e-20 -7.62329653e-20
      -7.62329653e-20 -7.62329653e-20 -7.62329653e-20 -7.62329653e-20
      -7.62329653e-20 -7.62329653e-20 -7.62329653e-20 -7.62329653e-20
      -7.62329653e-20 -7.62329653e-20 -7.62329653e-20 -7.62329653e-20
      -7.62329653e-20 -7.62329653e-20 -7.62329653e-20 -7.62329653e-20
      -7.62329653e-20 -7.62329653e-20 -7.62329653e-20 -7.62329653e-20
      1.20169199e-04 -7.62329653e-20 -7.62329653e-20 -7.62329653e-20
      -7.62329653e-20 -7.62329653e-20 -3.20451181e-05 -7.62329653e-20
      1.20169199e-04 -7.62329653e-20 -3.20451181e-05 -7.62329653e-20
      -7.62329653e-20 -7.62329653e-20 8.97263351e-04 -7.62329653e-20
      -7.62329653e-20 -7.62329653e-20 -7.62329653e-20 -7.62329653e-20
      8.01127953e-06 -7.62329653e-20 -1.20169199e-04 -7.62329653e-20
      -7.62329653e-20 -7.62329653e-20 -7.62329653e-20 -7.62329653e-20
      -1.01743254e-03 -7.62329653e-20 -7.62329653e-20 -7.62329653e-20
      -7.62329653e-20 -7.62329653e-20 -8.01127953e-06 -7.62329653e-20
      -7.62329653e-20 -7.62329653e-20 -7.62329653e-20 -7.62329653e-20
      1.20169199e-04 -7.62329653e-20 -7.62329653e-20 -7.62329653e-20
      -7.62329653e-20 -7.62329653e-20 3.20451181e-05 -7.62329653e-20
      3.20451181e-05 -7.62329653e-20 -7.62329653e-20 -7.62329653e-20
      8.01127953e-06 -7.62329653e-20 -1.20169199e-04 -7.62329653e-20
      4.00563986e-05 -7.62329653e-20 -8.01127953e-06 -7.62329653e-20
      5.25160427e-20 -7.62329653e-20 -3.20451181e-05 -7.62329653e-20
      8.13151629e-20 -7.62329653e-20 -7.62329653e-20 -7.62329653e-20
      -7.62329653e-20 8.01127953e-06 5.25160427e-20 8.01127953e-06
      5.08219768e-21 -7.62329653e-20 -7.62329653e-20 8.01127953e-06
      8.13151629e-20 -4.00563986e-05 -1.28180473e-04 -7.62329653e-20
      -7.62329653e-20 -9.65617560e-20 -7.62329653e-20 1.60225591e-05
      9.61353580e-05 -7.62329653e-20 -7.62329653e-20 -9.65617560e-20
      -7.62329653e-20 -8.01127953e-06 -9.61353580e-05 -7.62329653e-20
      -7.62329653e-20 8.01127953e-06 1.81265051e-19 4.80676790e-05
      1.28180473e-04 -7.62329653e-20 -7.62329653e-20 -9.65617560e-20
      -7.62329653e-20 -4.80676790e-05 -1.28180473e-04 -7.62329653e-20
      -7.62329653e-20 -2.37169225e-20 8.13151629e-20 1.60225591e-05
      6.40902363e-05 -7.62329653e-20 -7.62329653e-20 5.25160427e-20
      1.81265051e-19 -1.60225591e-05 -6.40902363e-05 -7.62329653e-20
      -7.62329653e-20 8.01127953e-06 5.08219768e-21 2.40338395e-05
      9.61353580e-05 -7.62329653e-20 -7.62329653e-20 -7.62329653e-20
      -7.62329653e-20 -1.60225591e-05 -9.61353580e-05 -7.62329653e-20
      3.04428628e-04 -2.56360945e-04 -1.52214314e-04 2.00281997e-04
      1.92270716e-04 -1.60225591e-05 -5.44767012e-04 4.80676790e-05
      -3.20451181e-05 -1.52214314e-04 2.40338395e-05 1.12157919e-04
      -3.92552727e-04 -5.60789595e-05 1.76248155e-04 1.60225594e-04
      5.84823429e-04 -1.04146638e-04 4.16586554e-04 -2.64372240e-04
      -3.20451181e-05 3.92552727e-04 6.64936204e-04 4.00563993e-04
      3.04428628e-04 4.40620381e-04 1.44203033e-04 5.20733185e-04
      3.84541432e-04 5.76812134e-04 2.40338399e-04 1.84259436e-04
      4.08575288e-04 5.60789602e-04 5.92834724e-04 -3.28462484e-04
      2.32327118e-04 -3.60507605e-04 1.76248155e-04 2.40338395e-05
      1.52214314e-04 1.60225594e-04 1.04146638e-04 -1.68236875e-04
      9.61353580e-05 -3.20451181e-05 1.84259436e-04 -8.01127953e-06
      -2.08293277e-04 -1.20169199e-04 -3.36473749e-04 -1.12157919e-04
      8.01127953e-06 2.16304557e-04 4.00563986e-05 6.77626358e-20
      1.68236875e-04 1.92270716e-04 -8.01127953e-06 -1.60225591e-05
      -1.36191753e-04 8.01127953e-06 2.00281997e-04 -8.01127953e-06
      -7.62329653e-20 -7.62329653e-20 -7.62329653e-20 -7.62329653e-20
      -7.62329653e-20 -7.62329653e-20 -7.62329653e-20 -7.62329653e-20
      4.00563986e-05 -7.62329653e-20 -2.40338395e-05 -7.62329653e-20
      -6.40902363e-05 -7.62329653e-20 -7.62329653e-20 -7.62329653e-20
      -7.62329653e-20 -7.62329653e-20 -7.62329653e-20 -7.62329653e-20
      -7.62329653e-20 -7.62329653e-20 -7.62329653e-20 -7.62329653e-20
      4.00563986e-05 -7.62329653e-20 -5.60789595e-05 -7.62329653e-20
      -9.61353580e-05 -7.62329653e-20 -7.62329653e-20 -7.62329653e-20
      -7.62329653e-20 -7.62329653e-20 -7.62329653e-20 -7.62329653e-20
      -7.62329653e-20 -7.62329653e-20 -7.62329653e-20 -7.62329653e-20
      6.40902363e-05 -7.62329653e-20 -3.20451181e-05 -7.62329653e-20
      -9.61353580e-05 -7.62329653e-20 -7.62329653e-20 -7.62329653e-20
      -7.62329653e-20 -7.62329653e-20 -7.62329653e-20 -7.62329653e-20
      -7.62329653e-20 -7.62329653e-20 -7.62329653e-20 -7.62329653e-20
      6.40902363e-05 -7.62329653e-20 -3.20451181e-05 -7.62329653e-20
      -9.61353580e-05 -7.62329653e-20 -7.62329653e-20 -7.62329653e-20
      -7.62329653e-20 -7.62329653e-20 -7.62329653e-20 -7.62329653e-20
      -7.62329653e-20 -7.62329653e-20 -7.62329653e-20 -7.62329653e-20
      1.28180473e-04 -7.62329653e-20 2.00281997e-04 -7.62329653e-20
      -9.61353580e-05 -7.62329653e-20 -7.62329653e-20 -7.62329653e-20
      -7.62329653e-20 -7.62329653e-20 -7.62329653e-20 -7.62329653e-20
      -7.62329653e-20 -7.62329653e-20 -7.62329653e-20 -7.62329653e-20
      -7.62329653e-20 -7.62329653e-20 9.61353580e-05 -7.62329653e-20
      -1.04146638e-04 -7.62329653e-20 -7.62329653e-20 -7.62329653e-20
      -7.62329653e-20 -7.62329653e-20 -7.62329653e-20 -7.62329653e-20
      -7.62329653e-20 -7.62329653e-20 -7.62329653e-20 -7.62329653e-20
      -7.62329653e-20 -7.62329653e-20 9.61353580e-05 -7.62329653e-20
      -7.62329653e-20 -7.62329653e-20 -7.62329653e-20 -7.62329653e-20
      -7.62329653e-20 -7.62329653e-20 -7.62329653e-20 -7.62329653e-20
      -7.62329653e-20 -7.62329653e-20 -7.62329653e-20 -7.62329653e-20
      -7.62329653e-20 -7.62329653e-20 9.61353580e-05 -7.62329653e-20
      -7.62329653e-20 -7.62329653e-20 -7.62329653e-20 -7.62329653e-20
      -7.62329653e-20 -7.62329653e-20 -7.62329653e-20 -7.62329653e-20
      -7.62329653e-20 -7.62329653e-20 -7.62329653e-20 -7.62329653e-20
      -7.62329653e-20 -7.62329653e-20 -7.62329653e-20 -7.62329653e-20
      -7.62329653e-20 -7.62329653e-20 -7.62329653e-20 -7.62329653e-20
      -7.62329653e-20 -7.62329653e-20 -7.62329653e-20 -7.62329653e-20
      -7.62329653e-20 -7.62329653e-20 -7.62329653e-20 -7.62329653e-20
      -7.62329653e-20 -7.62329653e-20 -7.62329653e-20 -7.62329653e-20
      -7.62329653e-20 -7.62329653e-20 -7.62329653e-20 -7.62329653e-20
      -7.62329653e-20 -7.62329653e-20 -7.62329653e-20 -7.62329653e-20
      -7.62329653e-20 -7.62329653e-20 -7.62329653e-20 -7.62329653e-20
      -7.62329653e-20 -7.62329653e-20 -7.62329653e-20 -7.62329653e-20
      -7.62329653e-20 -7.62329653e-20 -7.62329653e-20 -7.62329653e-20
      -7.62329653e-20 -7.62329653e-20 -7.62329653e-20 -7.62329653e-20
      -7.62329653e-20 -7.62329653e-20 -7.62329653e-20 -7.62329653e-20
      -7.62329653e-20 -7.62329653e-20 -7.62329653e-20 -7.62329653e-20
      -7.62329653e-20 -7.62329653e-20 -7.62329653e-20 -7.62329653e-20
      -7.62329653e-20 -7.62329653e-20 -7.62329653e-20 -7.62329653e-20
      -7.62329653e-20 -7.62329653e-20 -7.62329653e-20 -7.62329653e-20
      -7.62329653e-20 -7.62329653e-20 -7.62329653e-20 -7.62329653e-20
      -7.62329653e-20 -7.62329653e-20 -7.62329653e-20 -7.62329653e-20
      -7.62329653e-20 -7.62329653e-20 -7.62329653e-20 -7.62329653e-20
      -7.62329653e-20 -7.62329653e-20 -7.62329653e-20 -7.62329653e-20
      -7.62329653e-20 -7.62329653e-20 -7.62329653e-20 -7.62329653e-20
      -7.62329653e-20 -7.62329653e-20 -7.62329653e-20 -7.62329653e-20
      -7.62329653e-20 -7.62329653e-20 -7.62329653e-20 -7.62329653e-20
      -7.62329653e-20 -7.62329653e-20 -7.62329653e-20 -7.62329653e-20
      -7.62329653e-20 -7.62329653e-20 -7.62329653e-20 -7.62329653e-20
      -7.62329653e-20 -7.62329653e-20 -7.62329653e-20 -7.62329653e-20
      -7.62329653e-20 -7.62329653e-20 -7.62329653e-20 -7.62329653e-20
      -7.62329653e-20 -7.62329653e-20 -7.62329653e-20 -7.62329653e-20
      -7.62329653e-20 -7.62329653e-20 -7.62329653e-20 -7.62329653e-20
      -7.62329653e-20 -7.62329653e-20 -7.62329653e-20 -7.62329653e-20
      -7.62329653e-20 -7.62329653e-20 -7.62329653e-20 -7.62329653e-20
      -7.62329653e-20 -7.62329653e-20 -7.62329653e-20 -7.62329653e-20
      -7.62329653e-20 -7.62329653e-20 -7.62329653e-20 -7.62329653e-20
      -7.62329653e-20 -7.62329653e-20 -7.62329653e-20 -7.62329653e-20
      -7.62329653e-20 -7.62329653e-20 -7.62329653e-20 -7.62329653e-20
      -7.62329653e-20 -7.62329653e-20 -7.62329653e-20 -7.62329653e-20
      -7.62329653e-20 -7.62329653e-20 -7.62329653e-20 -7.62329653e-20
      -7.62329653e-20 -7.62329653e-20 -7.62329653e-20 -7.62329653e-20
      -7.62329653e-20 -7.62329653e-20 -7.62329653e-20 -7.62329653e-20
      -7.62329653e-20 -7.62329653e-20 -7.62329653e-20 -7.62329653e-20
      -7.62329653e-20 -7.62329653e-20 -7.62329653e-20 -7.62329653e-20
      -7.62329653e-20 -7.62329653e-20 -7.62329653e-20 -7.62329653e-20
      -7.62329653e-20 -7.62329653e-20 -7.62329653e-20 -7.62329653e-20
      -7.62329653e-20 -7.62329653e-20 -7.62329653e-20 -7.62329653e-20
      -7.62329653e-20 -7.62329653e-20 -7.62329653e-20 -7.62329653e-20
      -7.62329653e-20 -7.62329653e-20 -7.62329653e-20 -7.62329653e-20
      -7.62329653e-20 -7.62329653e-20 -7.62329653e-20 -7.62329653e-20
      -7.62329653e-20 -7.62329653e-20 -7.62329653e-20 -7.62329653e-20
      -7.62329653e-20 -7.62329653e-20 -7.62329653e-20 -7.62329653e-20
      -7.62329653e-20 -7.62329653e-20 -7.62329653e-20 -7.62329653e-20
      -7.62329653e-20 -7.62329653e-20 -7.62329653e-20 -7.62329653e-20
      -7.62329653e-20 -7.62329653e-20 -7.62329653e-20 -7.62329653e-20
      -7.62329653e-20 -7.62329653e-20 -7.62329653e-20 -7.62329653e-20
      -7.62329653e-20 -7.62329653e-20 -7.62329653e-20 -7.62329653e-20
      -7.62329653e-20 -7.62329653e-20 -7.62329653e-20 -7.62329653e-20
      -7.62329653e-20 -7.62329653e-20 -7.62329653e-20 -7.62329653e-20
      -7.62329653e-20 -7.62329653e-20 -7.62329653e-20 -7.62329653e-20
      -7.62329653e-20 -7.62329653e-20 -7.62329653e-20 -7.62329653e-20
      -7.62329653e-20 -7.62329653e-20 -7.62329653e-20 -7.62329653e-20
      -7.62329653e-20 -7.62329653e-20 -7.62329653e-20 -7.62329653e-20
      -7.62329653e-20 -7.62329653e-20 -7.62329653e-20 -7.62329653e-20
      -7.62329653e-20 -7.62329653e-20 -7.62329653e-20 -7.62329653e-20
      -7.62329653e-20 -7.62329653e-20 -7.62329653e-20 -7.62329653e-20
      -7.62329653e-20 -7.62329653e-20 -7.62329653e-20 -7.62329653e-20
      -7.62329653e-20 -7.62329653e-20 -7.62329653e-20 -7.62329653e-20
      -7.62329653e-20 -7.62329653e-20 -7.62329653e-20 -7.62329653e-20
      -7.62329653e-20 -7.62329653e-20 -7.62329653e-20 -7.62329653e-20
      -7.62329653e-20 -7.62329653e-20 -7.62329653e-20 -7.62329653e-20
      -7.62329653e-20 -7.62329653e-20 -7.62329653e-20 -7.62329653e-20
      -7.62329653e-20 -7.62329653e-20 -7.62329653e-20 -7.62329653e-20
      -7.62329653e-20 -7.62329653e-20 -7.62329653e-20 -7.62329653e-20
      -7.62329653e-20 -7.62329653e-20 -7.62329653e-20 -7.62329653e-20
      -7.62329653e-20 -7.62329653e-20 -7.62329653e-20 -7.62329653e-20
      -7.62329653e-20 -7.62329653e-20 -7.62329653e-20 -7.62329653e-20
      -7.62329653e-20 -7.62329653e-20 -7.62329653e-20 -7.62329653e-20
      -7.62329653e-20 -7.62329653e-20 -7.62329653e-20 -7.62329653e-20
      -7.62329653e-20 -7.62329653e-20 -7.62329653e-20 -7.62329653e-20
      -7.62329653e-20 -7.62329653e-20 -7.62329653e-20 -7.62329653e-20
      -7.62329653e-20 -7.62329653e-20 -7.62329653e-20 -7.62329653e-20
      -7.62329653e-20 -7.62329653e-20 -7.62329653e-20 -7.62329653e-20
      -7.62329653e-20 -7.62329653e-20 -7.62329653e-20 -7.62329653e-20
      -7.62329653e-20 -7.62329653e-20 -7.62329653e-20 -7.62329653e-20
      -7.62329653e-20 -7.62329653e-20 -7.62329653e-20 -7.62329653e-20
      -7.62329653e-20 -7.62329653e-20 -7.62329653e-20 -7.62329653e-20
      -7.62329653e-20 -7.62329653e-20 -7.62329653e-20 -7.62329653e-20
      -7.62329653e-20 -7.62329653e-20 -7.62329653e-20 -7.62329653e-20
      -7.62329653e-20 -7.62329653e-20 -7.62329653e-20 -7.62329653e-20
      -7.62329653e-20 -7.62329653e-20 -7.62329653e-20 -7.62329653e-20
      -7.62329653e-20 -7.62329653e-20 -7.62329653e-20 -7.62329653e-20
      -7.62329653e-20 -7.62329653e-20 -7.62329653e-20 -7.62329653e-20
      -7.62329653e-20 -7.62329653e-20 -7.62329653e-20 -7.62329653e-20
      -7.62329653e-20 -7.62329653e-20 -7.62329653e-20 -7.62329653e-20
      -7.62329653e-20 -7.62329653e-20 -7.62329653e-20 -7.62329653e-20
      -7.62329653e-20 -7.62329653e-20 -7.62329653e-20 -7.62329653e-20
      -7.62329653e-20 -7.62329653e-20 -7.62329653e-20 -7.62329653e-20
      -7.62329653e-20 -7.62329653e-20 -7.62329653e-20 -7.62329653e-20
      -7.62329653e-20 -7.62329653e-20 -7.62329653e-20 -7.62329653e-20
      -7.62329653e-20 -7.62329653e-20 -7.62329653e-20 -7.62329653e-20
      -7.62329653e-20 -7.62329653e-20 -7.62329653e-20 -7.62329653e-20
      -7.62329653e-20 -7.62329653e-20 -7.62329653e-20 -7.62329653e-20
      -7.62329653e-20 -7.62329653e-20 -7.62329653e-20 -7.62329653e-20
      -7.62329653e-20 -7.62329653e-20 -7.62329653e-20 -7.62329653e-20
      -7.62329653e-20 -7.62329653e-20 -7.62329653e-20 -7.62329653e-20
      -7.62329653e-20 -7.62329653e-20 -7.62329653e-20 -7.62329653e-20
      -7.62329653e-20 -7.62329653e-20 -7.62329653e-20 -7.62329653e-20
      -7.62329653e-20 -7.62329653e-20 -7.62329653e-20 -7.62329653e-20
      -7.62329653e-20 -7.62329653e-20 -7.62329653e-20 -7.62329653e-20
      -7.62329653e-20 -7.62329653e-20 -7.62329653e-20 -7.62329653e-20
      -7.62329653e-20 -7.62329653e-20 -7.62329653e-20 -7.62329653e-20
      -7.62329653e-20 -7.62329653e-20 -7.62329653e-20 -7.62329653e-20
      -7.62329653e-20 -7.62329653e-20 -7.62329653e-20 -7.62329653e-20
      -7.62329653e-20 -7.62329653e-20 -7.62329653e-20 -7.62329653e-20
      -7.62329653e-20 -7.62329653e-20 -7.62329653e-20 -7.62329653e-20
      -7.62329653e-20 -7.62329653e-20 -7.62329653e-20 -7.62329653e-20
      -7.62329653e-20 -7.62329653e-20 -7.62329653e-20 -7.62329653e-20
      -7.62329653e-20 -7.62329653e-20 -7.62329653e-20 -7.62329653e-20
      -7.62329653e-20 -7.62329653e-20 -7.62329653e-20 -7.62329653e-20
      -7.62329653e-20 -7.62329653e-20 -7.62329653e-20 -7.62329653e-20
      -7.62329653e-20 -7.62329653e-20 -7.62329653e-20 -7.62329653e-20
      -7.62329653e-20 -7.62329653e-20 -7.62329653e-20 -7.62329653e-20
      -7.62329653e-20 -7.62329653e-20 -7.62329653e-20 -7.62329653e-20
      -7.62329653e-20 -7.62329653e-20 -7.62329653e-20 -7.62329653e-20
      -7.62329653e-20 -7.62329653e-20 -7.62329653e-20 -7.62329653e-20
      -7.62329653e-20 -7.62329653e-20 -7.62329653e-20 -7.62329653e-20
      -7.62329653e-20 -7.62329653e-20 -7.62329653e-20 -7.62329653e-20
      -7.62329653e-20 -7.62329653e-20 -7.62329653e-20 -7.62329653e-20
      -7.62329653e-20 -7.62329653e-20 -7.62329653e-20 -7.62329653e-20
      -7.62329653e-20 -7.62329653e-20 -7.62329653e-20 -7.62329653e-20
      -7.62329653e-20 -7.62329653e-20 -7.62329653e-20 -7.62329653e-20
      -7.62329653e-20 -7.62329653e-20 -7.62329653e-20 -7.62329653e-20
      -7.62329653e-20 -7.62329653e-20 -7.62329653e-20 -7.62329653e-20
      -7.62329653e-20 -7.62329653e-20 -7.62329653e-20 -7.62329653e-20
      -7.62329653e-20 -7.62329653e-20 -7.62329653e-20 -7.62329653e-20
      -7.62329653e-20 -7.62329653e-20 -7.62329653e-20 -7.62329653e-20
      -7.62329653e-20 -7.62329653e-20 -7.62329653e-20 -7.62329653e-20
      -7.62329653e-20 -7.62329653e-20 -7.62329653e-20 -7.62329653e-20
      -7.62329653e-20 -7.62329653e-20 -7.62329653e-20 -7.62329653e-20
      -7.62329653e-20 -7.62329653e-20 -7.62329653e-20 -7.62329653e-20
      -7.62329653e-20 -7.62329653e-20 -7.62329653e-20 -7.62329653e-20
      -7.62329653e-20 -7.62329653e-20 -7.62329653e-20 -7.62329653e-20
      -7.62329653e-20 -7.62329653e-20 -7.62329653e-20 -7.62329653e-20
      -7.62329653e-20 -7.62329653e-20 -7.62329653e-20 -7.62329653e-20
      -7.62329653e-20 -7.62329653e-20 -7.62329653e-20 -7.62329653e-20
      -7.62329653e-20 -7.62329653e-20 -7.62329653e-20 -7.62329653e-20
      -7.62329653e-20 -7.62329653e-20 -7.62329653e-20 -7.62329653e-20
      -7.62329653e-20 -7.62329653e-20 -7.62329653e-20 -7.62329653e-20
      -7.62329653e-20 -7.62329653e-20 -7.62329653e-20 -7.62329653e-20
      -7.62329653e-20 -7.62329653e-20 -7.62329653e-20 -7.62329653e-20
      -7.62329653e-20 -7.62329653e-20 -7.62329653e-20 -7.62329653e-20
      -7.62329653e-20 -7.62329653e-20 -7.62329653e-20 -7.62329653e-20
      -7.62329653e-20 -7.62329653e-20 -7.62329653e-20 -7.62329653e-20
      -7.62329653e-20 -7.62329653e-20 -7.62329653e-20 -7.62329653e-20
      -7.62329653e-20 -7.62329653e-20 -7.62329653e-20 -7.62329653e-20
      -7.62329653e-20 -7.62329653e-20 -7.62329653e-20 -7.62329653e-20
      -7.62329653e-20 -7.62329653e-20 -7.62329653e-20 -7.62329653e-20
      -7.62329653e-20 -7.62329653e-20 -7.62329653e-20 -7.62329653e-20
      -7.62329653e-20 -7.62329653e-20 -7.62329653e-20 -7.62329653e-20
      -7.62329653e-20 -7.62329653e-20 -7.62329653e-20 -7.62329653e-20
      -7.62329653e-20 -7.62329653e-20 -7.62329653e-20 -7.62329653e-20
      -7.62329653e-20 -7.62329653e-20 -7.62329653e-20 -7.62329653e-20
      -7.62329653e-20 -7.62329653e-20 -7.62329653e-20 -7.62329653e-20
      -7.62329653e-20 -7.62329653e-20 -7.62329653e-20 -7.62329653e-20
      -7.62329653e-20 -7.62329653e-20 -7.62329653e-20 -7.62329653e-20
      -7.62329653e-20 -7.62329653e-20 -7.62329653e-20 -7.62329653e-20
      -7.62329653e-20 -7.62329653e-20 -7.62329653e-20 -7.62329653e-20
      -7.62329653e-20 -7.62329653e-20 -7.62329653e-20 -7.62329653e-20
      -7.62329653e-20 -7.62329653e-20 -7.62329653e-20 -7.62329653e-20
      -7.62329653e-20 -7.62329653e-20 -7.62329653e-20 -7.62329653e-20
      -7.62329653e-20 -7.62329653e-20 -7.62329653e-20 -7.62329653e-20
      -7.62329653e-20 -7.62329653e-20 -7.62329653e-20 -7.62329653e-20
      -7.62329653e-20 -7.62329653e-20 -7.62329653e-20 -7.62329653e-20
      -7.62329653e-20 -7.62329653e-20 -7.62329653e-20 -7.62329653e-20
      -7.62329653e-20 -7.62329653e-20 -7.62329653e-20 -7.62329653e-20
      -7.62329653e-20 -7.62329653e-20 -7.62329653e-20 -7.62329653e-20
      -7.62329653e-20 -7.62329653e-20 -7.62329653e-20 -7.62329653e-20
      -7.62329653e-20 -7.62329653e-20 -7.62329653e-20 -7.62329653e-20
      -7.62329653e-20 -7.62329653e-20 -7.62329653e-20 -7.62329653e-20
      -7.62329653e-20 -7.62329653e-20 -7.62329653e-20 -7.62329653e-20
      -7.62329653e-20 -7.62329653e-20 -7.62329653e-20 -7.62329653e-20
      -7.62329653e-20 -7.62329653e-20 -7.62329653e-20 -7.62329653e-20
      -7.62329653e-20 -7.62329653e-20 -7.62329653e-20 -7.62329653e-20
      -7.62329653e-20 -7.62329653e-20 -7.62329653e-20 -7.62329653e-20
      -7.62329653e-20 -7.62329653e-20 -7.62329653e-20 -7.62329653e-20
      -7.62329653e-20 -7.62329653e-20 -7.62329653e-20 -7.62329653e-20
      -7.62329653e-20 -7.62329653e-20 -7.62329653e-20 -7.62329653e-20
      -7.62329653e-20 -7.62329653e-20 -7.62329653e-20 -7.62329653e-20
      -7.62329653e-20 -7.62329653e-20 -7.62329653e-20 -7.62329653e-20
      -7.62329653e-20 -7.62329653e-20 -7.62329653e-20 -7.62329653e-20
      -7.62329653e-20 -7.62329653e-20 -7.62329653e-20 -7.62329653e-20
      -7.62329653e-20 -7.62329653e-20 -7.62329653e-20 -7.62329653e-20
      -7.62329653e-20 -7.62329653e-20 -7.62329653e-20 -7.62329653e-20
      -7.62329653e-20 -7.62329653e-20 -7.62329653e-20 -7.62329653e-20
      -7.62329653e-20 -7.62329653e-20 -7.62329653e-20 -7.62329653e-20
      -7.62329653e-20 -7.62329653e-20 -7.62329653e-20 -7.62329653e-20
      -7.62329653e-20 -7.62329653e-20 -7.62329653e-20 -7.62329653e-20
      -7.62329653e-20 -7.62329653e-20 -7.62329653e-20 -7.62329653e-20
      -7.62329653e-20 -7.62329653e-20 -7.62329653e-20 -7.62329653e-20
      -7.62329653e-20 -7.62329653e-20 -7.62329653e-20 -7.62329653e-20
      -7.62329653e-20 -7.62329653e-20 -7.62329653e-20 -7.62329653e-20
      -7.62329653e-20 -7.62329653e-20 -7.62329653e-20 -7.62329653e-20
      -7.62329653e-20 -7.62329653e-20 -7.62329653e-20 -7.62329653e-20
      -7.62329653e-20 -7.62329653e-20 -7.62329653e-20 -7.62329653e-20
      -7.62329653e-20 -7.62329653e-20 -7.62329653e-20 -7.62329653e-20
      -7.62329653e-20 -7.62329653e-20 -7.62329653e-20 -7.62329653e-20
      -7.62329653e-20 -7.62329653e-20 -7.62329653e-20 -7.62329653e-20
      -7.62329653e-20 -7.62329653e-20 -7.62329653e-20 -7.62329653e-20
      -7.62329653e-20 -7.62329653e-20 -7.62329653e-20 -7.62329653e-20
      -7.62329653e-20 -7.62329653e-20 -7.62329653e-20 -7.62329653e-20
      -7.62329653e-20 -7.62329653e-20 -7.62329653e-20 -7.62329653e-20
      -7.62329653e-20 -7.62329653e-20 -7.62329653e-20 -7.62329653e-20
      -7.62329653e-20 -7.62329653e-20 -7.62329653e-20 -7.62329653e-20
      -7.62329653e-20 -7.62329653e-20 -7.62329653e-20 -7.62329653e-20
      -7.62329653e-20 -7.62329653e-20 -7.62329653e-20 -7.62329653e-20
      -7.62329653e-20 -7.62329653e-20 -7.62329653e-20 -7.62329653e-20
      -7.62329653e-20 -7.62329653e-20 -7.62329653e-20 -7.62329653e-20
      -7.62329653e-20 -7.62329653e-20 -7.62329653e-20 -7.62329653e-20
      -7.62329653e-20 -7.62329653e-20 -7.62329653e-20 -7.62329653e-20
      -7.62329653e-20 -7.62329653e-20 -7.62329653e-20 -7.62329653e-20
      -7.62329653e-20 -7.62329653e-20 -7.62329653e-20 -7.62329653e-20
      -7.62329653e-20 -7.62329653e-20 -7.62329653e-20 -7.62329653e-20
      -7.62329653e-20 -7.62329653e-20 -7.62329653e-20 -7.62329653e-20
      -7.62329653e-20 -7.62329653e-20 -7.62329653e-20 -7.62329653e-20
      -7.62329653e-20 -7.62329653e-20 -7.62329653e-20 -7.62329653e-20
      -7.62329653e-20 -7.62329653e-20 -7.62329653e-20 -7.62329653e-20
      -7.62329653e-20 -7.62329653e-20 -7.62329653e-20 -7.62329653e-20
      -7.62329653e-20 -7.62329653e-20 -7.62329653e-20 -7.62329653e-20
      -7.62329653e-20 -7.62329653e-20 -7.62329653e-20 -7.62329653e-20
      -7.62329653e-20 -7.62329653e-20 -7.62329653e-20 -7.62329653e-20
      -7.62329653e-20 -7.62329653e-20 -7.62329653e-20 -7.62329653e-20
      -7.62329653e-20 -7.62329653e-20 -7.62329653e-20 -7.62329653e-20
      -7.62329653e-20 -7.62329653e-20 -7.62329653e-20 -7.62329653e-20
      -7.62329653e-20 -7.62329653e-20 -7.62329653e-20 -7.62329653e-20
      -7.62329653e-20 -7.62329653e-20 -7.62329653e-20 -7.62329653e-20
      -7.62329653e-20 -7.62329653e-20 -7.62329653e-20 -7.62329653e-20
      -7.62329653e-20 -7.62329653e-20 -7.62329653e-20 -7.62329653e-20
      -7.62329653e-20 -7.62329653e-20 -7.62329653e-20 -7.62329653e-20
      -7.62329653e-20 -7.62329653e-20 -7.62329653e-20 -7.62329653e-20
      -7.62329653e-20 -7.62329653e-20 -7.62329653e-20 -7.62329653e-20
      -7.62329653e-20 -7.62329653e-20 -7.62329653e-20 -7.62329653e-20
      -7.62329653e-20 -7.62329653e-20 -7.62329653e-20 -7.62329653e-20
      -7.62329653e-20 -7.62329653e-20 -7.62329653e-20 -7.62329653e-20
      -7.62329653e-20 -7.62329653e-20 -7.62329653e-20 -7.62329653e-20
      -7.62329653e-20 -7.62329653e-20 -7.62329653e-20 -7.62329653e-20
      -7.62329653e-20 -7.62329653e-20 -7.62329653e-20 -7.62329653e-20
      -7.62329653e-20 -7.62329653e-20 -7.62329653e-20 -7.62329653e-20
      -7.62329653e-20 -7.62329653e-20 -7.62329653e-20 -7.62329653e-20
      -7.62329653e-20 -7.62329653e-20 -7.62329653e-20 -7.62329653e-20
      -7.62329653e-20 -7.62329653e-20 -7.62329653e-20 -7.62329653e-20
      -7.62329653e-20 -7.62329653e-20 -7.62329653e-20 -7.62329653e-20
      -7.62329653e-20 -7.62329653e-20 -7.62329653e-20 -7.62329653e-20
      -7.62329653e-20 -7.62329653e-20 -7.62329653e-20 -7.62329653e-20
      -7.62329653e-20 -7.62329653e-20 -7.62329653e-20 -7.62329653e-20
      -7.62329653e-20 -7.62329653e-20 -7.62329653e-20 -7.62329653e-20
      -7.62329653e-20 -7.62329653e-20 -7.62329653e-20 -7.62329653e-20
      -7.62329653e-20 -7.62329653e-20 -7.62329653e-20 -7.62329653e-20
      -7.62329653e-20 -7.62329653e-20 -7.62329653e-20 -7.62329653e-20
      -7.62329653e-20 -7.62329653e-20 -7.62329653e-20 -7.62329653e-20
      -7.62329653e-20 -7.62329653e-20 -7.62329653e-20 -7.62329653e-20
      -7.62329653e-20 -7.62329653e-20 -7.62329653e-20 -7.62329653e-20
      -7.62329653e-20 -7.62329653e-20 -7.62329653e-20 -7.62329653e-20
      -7.62329653e-20 -7.62329653e-20 -7.62329653e-20 -7.62329653e-20
      -7.62329653e-20 -7.62329653e-20 -7.62329653e-20 -7.62329653e-20
      -7.62329653e-20 -7.62329653e-20 -7.62329653e-20 -7.62329653e-20
      -7.62329653e-20 -7.62329653e-20 -7.62329653e-20 -7.62329653e-20
      -7.62329653e-20 -7.62329653e-20 -7.62329653e-20 -7.62329653e-20
      -7.62329653e-20 -7.62329653e-20 -7.62329653e-20 -7.62329653e-20
      -7.62329653e-20 -7.62329653e-20 -7.62329653e-20 -7.62329653e-20
      -7.62329653e-20 -7.62329653e-20 -7.62329653e-20 -7.62329653e-20
      -7.62329653e-20 -7.62329653e-20 -7.62329653e-20 -7.62329653e-20
      -7.62329653e-20 -7.62329653e-20 -7.62329653e-20 -7.62329653e-20
      -7.62329653e-20 -7.62329653e-20 -7.62329653e-20 -7.62329653e-20
      -7.62329653e-20 -7.62329653e-20 -7.62329653e-20 -7.62329653e-20
      -7.62329653e-20 -7.62329653e-20 -7.62329653e-20 -7.62329653e-20
      -7.62329653e-20 -7.62329653e-20 -7.62329653e-20 -7.62329653e-20
      -7.62329653e-20 -7.62329653e-20 -7.62329653e-20 -7.62329653e-20
      -7.62329653e-20 -7.62329653e-20 -7.62329653e-20 -7.62329653e-20
      -7.62329653e-20 -7.62329653e-20 -7.62329653e-20 -7.62329653e-20
      -7.62329653e-20 -7.62329653e-20 -7.62329653e-20 -7.62329653e-20
      -7.62329653e-20 -7.62329653e-20 -7.62329653e-20 -7.62329653e-20
      -7.62329653e-20 -7.62329653e-20 -7.62329653e-20 -7.62329653e-20
      -7.62329653e-20 -7.62329653e-20 -7.62329653e-20 -7.62329653e-20
      -7.62329653e-20 -7.62329653e-20 -7.62329653e-20 -7.62329653e-20
      -7.62329653e-20 -7.62329653e-20 -7.62329653e-20 -7.62329653e-20
      -7.62329653e-20 -7.62329653e-20 -7.62329653e-20 -7.62329653e-20
      -7.62329653e-20 -7.62329653e-20 -7.62329653e-20 -7.62329653e-20
      -7.62329653e-20 -7.62329653e-20 -7.62329653e-20 -7.62329653e-20
      -7.62329653e-20 -7.62329653e-20 -7.62329653e-20 -7.62329653e-20
      -7.62329653e-20 -7.62329653e-20 -7.62329653e-20 -7.62329653e-20
      -7.62329653e-20 -7.62329653e-20 -7.62329653e-20 -7.62329653e-20
      -7.62329653e-20 -7.62329653e-20 -7.62329653e-20 -7.62329653e-20
      -7.62329653e-20 -7.62329653e-20 -7.62329653e-20 -7.62329653e-20
      -7.62329653e-20 -7.62329653e-20 -7.62329653e-20 -7.62329653e-20
      -7.62329653e-20 -7.62329653e-20 -7.62329653e-20 -7.62329653e-20
      -7.62329653e-20 -7.62329653e-20 -7.62329653e-20 -7.62329653e-20
      -7.62329653e-20 -7.62329653e-20 -7.62329653e-20 -7.62329653e-20
      -7.62329653e-20 -7.62329653e-20 -7.62329653e-20 -7.62329653e-20
      -7.62329653e-20 -7.62329653e-20 -7.62329653e-20 -7.62329653e-20
      -7.62329653e-20 -7.62329653e-20 -7.62329653e-20 -7.62329653e-20
      -7.62329653e-20 -7.62329653e-20 -7.62329653e-20 -7.62329653e-20
      -7.62329653e-20 -7.62329653e-20 -7.62329653e-20 -7.62329653e-20
      -7.62329653e-20 -7.62329653e-20 -7.62329653e-20 -7.62329653e-20
      -7.62329653e-20 -7.62329653e-20 -7.62329653e-20 -7.62329653e-20
      -7.62329653e-20 -7.62329653e-20 -7.62329653e-20 -7.62329653e-20
      -7.62329653e-20 -7.62329653e-20 -7.62329653e-20 -7.62329653e-20
      -7.62329653e-20 -7.62329653e-20 -7.62329653e-20 -7.62329653e-20
      -7.62329653e-20 -7.62329653e-20 -7.62329653e-20 -7.62329653e-20
      -7.62329653e-20 -7.62329653e-20 -7.62329653e-20 -7.62329653e-20
      -7.62329653e-20 -7.62329653e-20 -7.62329653e-20 -7.62329653e-20
      -7.62329653e-20 -7.62329653e-20 -7.62329653e-20 -7.62329653e-20
      -7.62329653e-20 -7.62329653e-20 -7.62329653e-20 -7.62329653e-20
      -7.62329653e-20 -7.62329653e-20 -7.62329653e-20 -7.62329653e-20
      -7.62329653e-20 -7.62329653e-20 -7.62329653e-20 -7.62329653e-20
      -7.62329653e-20 -7.62329653e-20 -7.62329653e-20 -7.62329653e-20
      -7.62329653e-20 -7.62329653e-20 -7.62329653e-20 -7.62329653e-20
      -7.62329653e-20 -7.62329653e-20 -7.62329653e-20 -7.62329653e-20
      -7.62329653e-20 -7.62329653e-20 -7.62329653e-20 -7.62329653e-20
      -7.62329653e-20 -7.62329653e-20 -7.62329653e-20 -7.62329653e-20
      -7.62329653e-20 -7.62329653e-20 -7.62329653e-20 -7.62329653e-20
      -7.62329653e-20 -7.62329653e-20 -7.62329653e-20 -7.62329653e-20
      -7.62329653e-20 -7.62329653e-20 -7.62329653e-20 -7.62329653e-20
      -7.62329653e-20 -7.62329653e-20 -7.62329653e-20 -7.62329653e-20
      -7.62329653e-20 -7.62329653e-20 -7.62329653e-20 -7.62329653e-20
      -7.62329653e-20 -7.62329653e-20 -7.62329653e-20 -7.62329653e-20
      -7.62329653e-20 -7.62329653e-20 -7.62329653e-20 -7.62329653e-20
      -7.62329653e-20 -7.62329653e-20 -7.62329653e-20 -7.62329653e-20
      -7.62329653e-20 -7.62329653e-20 -7.62329653e-20 -7.62329653e-20
      -7.62329653e-20 -7.62329653e-20 -7.62329653e-20 -7.62329653e-20
      -7.62329653e-20 -7.62329653e-20 -7.62329653e-20 -7.62329653e-20
      -7.62329653e-20 -7.62329653e-20 -7.62329653e-20 -7.62329653e-20
      -7.62329653e-20 -7.62329653e-20 -7.62329653e-20 -7.62329653e-20
      -7.62329653e-20 -7.62329653e-20 -7.62329653e-20 -7.62329653e-20
      -7.62329653e-20 -7.62329653e-20 -7.62329653e-20 -7.62329653e-20
      -7.62329653e-20 -7.62329653e-20 -7.62329653e-20 -7.62329653e-20
      -7.62329653e-20 -7.62329653e-20 -7.62329653e-20 -7.62329653e-20
      -7.62329653e-20 -7.62329653e-20 -7.62329653e-20 -7.62329653e-20
      -7.62329653e-20 -7.62329653e-20 -7.62329653e-20 -7.62329653e-20
      -7.62329653e-20 -7.62329653e-20 -7.62329653e-20 -7.62329653e-20
      -7.62329653e-20 -7.62329653e-20 -7.62329653e-20 -7.62329653e-20
      -7.62329653e-20 -7.62329653e-20 -7.62329653e-20 -7.62329653e-20
      -7.62329653e-20 -7.62329653e-20 -7.62329653e-20 -7.62329653e-20
      -7.62329653e-20 -7.62329653e-20 -7.62329653e-20 -7.62329653e-20
      -7.62329653e-20 -7.62329653e-20 -7.62329653e-20 -7.62329653e-20
      -7.62329653e-20 -7.62329653e-20 -7.62329653e-20 -7.62329653e-20
      -7.62329653e-20 -7.62329653e-20 -7.62329653e-20 -7.62329653e-20
      -7.62329653e-20 -7.62329653e-20 -7.62329653e-20 -7.62329653e-20
      -7.62329653e-20 -7.62329653e-20 -7.62329653e-20 -7.62329653e-20
      -7.62329653e-20 -7.62329653e-20 -7.62329653e-20 -7.62329653e-20
      -7.62329653e-20 -7.62329653e-20 -7.62329653e-20 -7.62329653e-20
      -7.62329653e-20 -7.62329653e-20 -7.62329653e-20 -7.62329653e-20
      -7.62329653e-20 -7.62329653e-20 -7.62329653e-20 -7.62329653e-20
      -7.62329653e-20 -7.62329653e-20 -7.62329653e-20 -7.62329653e-20
      -7.62329653e-20 -7.62329653e-20 -7.62329653e-20 -7.62329653e-20
      -7.62329653e-20 -7.62329653e-20 -7.62329653e-20 -7.62329653e-20
      -7.62329653e-20 -7.62329653e-20 -7.62329653e-20 -7.62329653e-20
      -7.62329653e-20 -7.62329653e-20 -7.62329653e-20 -7.62329653e-20
      -7.62329653e-20 -7.62329653e-20 -7.62329653e-20 -7.62329653e-20
      -7.62329653e-20 -7.62329653e-20 -7.62329653e-20 -7.62329653e-20
      -7.62329653e-20 -7.62329653e-20 -7.62329653e-20 -7.62329653e-20
      -7.62329653e-20 -7.62329653e-20 -7.62329653e-20 -7.62329653e-20
      -7.62329653e-20 -7.62329653e-20 -7.62329653e-20 -7.62329653e-20
      -7.62329653e-20 -7.62329653e-20 -7.62329653e-20 -7.62329653e-20
      -7.62329653e-20 -7.62329653e-20 -7.62329653e-20 -7.62329653e-20
      -7.62329653e-20 -7.62329653e-20 -7.62329653e-20 -7.62329653e-20
      -7.62329653e-20 -7.62329653e-20 -7.62329653e-20 -7.62329653e-20
      -7.62329653e-20 -7.62329653e-20 -7.62329653e-20 -7.62329653e-20
      -7.62329653e-20 -7.62329653e-20 -7.62329653e-20 -7.62329653e-20
      -7.62329653e-20 -7.62329653e-20 -7.62329653e-20 -7.62329653e-20
      -7.62329653e-20 -7.62329653e-20 -7.62329653e-20 -7.62329653e-20
      -7.62329653e-20 -7.62329653e-20 -7.62329653e-20 -7.62329653e-20
      -7.62329653e-20 -7.62329653e-20 -7.62329653e-20 -7.62329653e-20
      -7.62329653e-20 -7.62329653e-20 -7.62329653e-20 -7.62329653e-20
      -7.62329653e-20 -7.62329653e-20 -7.62329653e-20 -7.62329653e-20
      -7.62329653e-20 -7.62329653e-20 -7.62329653e-20 -7.62329653e-20
      -7.62329653e-20 -7.62329653e-20 -7.62329653e-20 -7.62329653e-20
      -7.62329653e-20 -7.62329653e-20 -7.62329653e-20 -7.62329653e-20
      -7.62329653e-20 -7.62329653e-20 -7.62329653e-20 -7.62329653e-20
      -7.62329653e-20 -7.62329653e-20 -7.62329653e-20 -7.62329653e-20
      -7.62329653e-20 -7.62329653e-20 -7.62329653e-20 -7.62329653e-20
      -7.62329653e-20 -7.62329653e-20 -7.62329653e-20 -7.62329653e-20
      -7.62329653e-20 -7.62329653e-20 -7.62329653e-20 -7.62329653e-20
      -7.62329653e-20 -7.62329653e-20 -7.62329653e-20 -7.62329653e-20
      -7.62329653e-20 -7.62329653e-20 -7.62329653e-20 -7.62329653e-20
      -7.62329653e-20 -7.62329653e-20 -7.62329653e-20 -7.62329653e-20
      -7.62329653e-20 -7.62329653e-20 -7.62329653e-20 -7.62329653e-20
      -7.62329653e-20 -7.62329653e-20 -7.62329653e-20 -7.62329653e-20
      -7.62329653e-20 -7.62329653e-20 -7.62329653e-20 -7.62329653e-20
      -7.62329653e-20 -7.62329653e-20 -7.62329653e-20 -7.62329653e-20
      -7.62329653e-20 -7.62329653e-20 -7.62329653e-20 -7.62329653e-20
      -7.62329653e-20 -7.62329653e-20 -7.62329653e-20 -7.62329653e-20
      -7.62329653e-20 -7.62329653e-20 -7.62329653e-20 -7.62329653e-20
      -7.62329653e-20 -7.62329653e-20 -7.62329653e-20 -7.62329653e-20
      -7.62329653e-20 -7.62329653e-20 -7.62329653e-20 -7.62329653e-20
      -7.62329653e-20 -7.62329653e-20 -7.62329653e-20 -7.62329653e-20
      -7.62329653e-20 -7.62329653e-20 -7.62329653e-20 -7.62329653e-20
      -7.62329653e-20 -7.62329653e-20 -7.62329653e-20 -7.62329653e-20
      -7.62329653e-20 -7.62329653e-20 -7.62329653e-20 -7.62329653e-20
      -7.62329653e-20 -7.62329653e-20 -7.62329653e-20 -7.62329653e-20
      -7.62329653e-20 -7.62329653e-20 -7.62329653e-20 -7.62329653e-20
      -7.62329653e-20 -7.62329653e-20 -7.62329653e-20 -7.62329653e-20
      -7.62329653e-20 -7.62329653e-20 -7.62329653e-20 -7.62329653e-20
      -7.62329653e-20 -7.62329653e-20 -7.62329653e-20 -7.62329653e-20
      -7.62329653e-20 -7.62329653e-20 -7.62329653e-20 -7.62329653e-20
      -7.62329653e-20 -7.62329653e-20 -7.62329653e-20 -7.62329653e-20
      -7.62329653e-20 -7.62329653e-20 -7.62329653e-20 -7.62329653e-20
      -7.62329653e-20 -7.62329653e-20 -7.62329653e-20 -7.62329653e-20
      -7.62329653e-20 -7.62329653e-20 -7.62329653e-20 -7.62329653e-20
      -7.62329653e-20 -7.62329653e-20 -7.62329653e-20 -7.62329653e-20
      -7.62329653e-20 -7.62329653e-20 -7.62329653e-20 -7.62329653e-20
      -7.62329653e-20 -7.62329653e-20 -7.62329653e-20 -7.62329653e-20
      -7.62329653e-20 -7.62329653e-20 -7.62329653e-20 -7.62329653e-20
      -7.62329653e-20 -7.62329653e-20 -7.62329653e-20 -7.62329653e-20
      -7.62329653e-20 -7.62329653e-20 -7.62329653e-20 -7.62329653e-20
      -7.62329653e-20 -7.62329653e-20 -7.62329653e-20 -7.62329653e-20
      -7.62329653e-20 -7.62329653e-20 -7.62329653e-20 -7.62329653e-20
      -7.62329653e-20 -7.62329653e-20 -7.62329653e-20 -7.62329653e-20
      -7.62329653e-20 -7.62329653e-20 -7.62329653e-20 -7.62329653e-20
      -7.62329653e-20 -7.62329653e-20 -7.62329653e-20 -7.62329653e-20
      -7.62329653e-20 -7.62329653e-20 -7.62329653e-20 -7.62329653e-20
      -7.62329653e-20 -7.62329653e-20 -7.62329653e-20 -7.62329653e-20
      -7.62329653e-20 -7.62329653e-20 -7.62329653e-20 -7.62329653e-20
      -7.62329653e-20 -7.62329653e-20 -7.62329653e-20 -7.62329653e-20
      -7.62329653e-20 -7.62329653e-20 -7.62329653e-20 -7.62329653e-20
      -7.62329653e-20 -7.62329653e-20 -7.62329653e-20 -7.62329653e-20
      -7.62329653e-20 -7.62329653e-20 -7.62329653e-20 -7.62329653e-20
      -7.62329653e-20 -7.62329653e-20 -7.62329653e-20 -7.62329653e-20
      -7.62329653e-20 -7.62329653e-20 -7.62329653e-20 -7.62329653e-20
      -7.62329653e-20 -7.62329653e-20 -7.62329653e-20 -7.62329653e-20
      -7.62329653e-20 -7.62329653e-20 -7.62329653e-20 -7.62329653e-20
      -7.62329653e-20 -7.62329653e-20 -7.62329653e-20 -7.62329653e-20
      -7.62329653e-20 -7.62329653e-20 -7.62329653e-20 -7.62329653e-20
      -7.62329653e-20 -7.62329653e-20 -7.62329653e-20 -7.62329653e-20
      -7.62329653e-20 -7.62329653e-20 -7.62329653e-20 -7.62329653e-20
      -7.62329653e-20 -7.62329653e-20 -7.62329653e-20 -7.62329653e-20
      -7.62329653e-20 -7.62329653e-20 -7.62329653e-20 -7.62329653e-20
      -7.62329653e-20 -7.62329653e-20 -7.62329653e-20 -7.62329653e-20
      -7.62329653e-20 -7.62329653e-20 -7.62329653e-20 -7.62329653e-20
      -7.62329653e-20 -7.62329653e-20 -7.62329653e-20 -7.62329653e-20
      -7.62329653e-20 -7.62329653e-20 -7.62329653e-20 -7.62329653e-20
      -7.62329653e-20 -7.62329653e-20 -7.62329653e-20 -7.62329653e-20
      -7.62329653e-20 -7.62329653e-20 -7.62329653e-20 -7.62329653e-20
      -7.62329653e-20 -7.62329653e-20 -7.62329653e-20 -7.62329653e-20
      -7.62329653e-20 -7.62329653e-20 -7.62329653e-20 -7.62329653e-20
      -7.62329653e-20 -7.62329653e-20 -7.62329653e-20 -7.62329653e-20
      -7.62329653e-20 -7.62329653e-20 -7.62329653e-20 -7.62329653e-20
      -7.62329653e-20 -7.62329653e-20 -7.62329653e-20 -7.62329653e-20
      -7.62329653e-20 -7.62329653e-20 -7.62329653e-20 -7.62329653e-20
      -7.62329653e-20 -7.62329653e-20 -7.62329653e-20 -7.62329653e-20
      -7.62329653e-20 -7.62329653e-20 -7.62329653e-20 -7.62329653e-20
      -7.62329653e-20 -7.62329653e-20 -7.62329653e-20 -7.62329653e-20
      -7.62329653e-20 -7.62329653e-20 -7.62329653e-20 -7.62329653e-20
      -7.62329653e-20 -7.62329653e-20 -7.62329653e-20 -7.62329653e-20
      -7.62329653e-20 -7.62329653e-20 -7.62329653e-20 -7.62329653e-20
      -7.62329653e-20 -7.62329653e-20 -7.62329653e-20 -7.62329653e-20
      -7.62329653e-20 -7.62329653e-20 -7.62329653e-20 -7.62329653e-20
      -7.62329653e-20 -7.62329653e-20 -7.62329653e-20 -7.62329653e-20
      -7.62329653e-20 -7.62329653e-20 -7.62329653e-20 -7.62329653e-20
      -7.62329653e-20 -7.62329653e-20 -7.62329653e-20 -7.62329653e-20
      -7.62329653e-20 -7.62329653e-20 -7.62329653e-20 -7.62329653e-20
      -7.62329653e-20 -7.62329653e-20 -7.62329653e-20 -7.62329653e-20
      -7.62329653e-20 -7.62329653e-20 -7.62329653e-20 -7.62329653e-20
      -7.62329653e-20 -7.62329653e-20 -7.62329653e-20 -7.62329653e-20
      -7.62329653e-20 -7.62329653e-20 -7.62329653e-20 -7.62329653e-20
      -7.62329653e-20 -7.62329653e-20 -7.62329653e-20 -7.62329653e-20
      -7.62329653e-20 -7.62329653e-20 -7.62329653e-20 -7.62329653e-20
      -7.62329653e-20 -7.62329653e-20 -7.62329653e-20 -7.62329653e-20
      -7.62329653e-20 -7.62329653e-20 -7.62329653e-20 -7.62329653e-20
      -7.62329653e-20 -7.62329653e-20 -7.62329653e-20 -7.62329653e-20
      -7.62329653e-20 -7.62329653e-20 -7.62329653e-20 -7.62329653e-20
      -7.62329653e-20 -7.62329653e-20 -7.62329653e-20 -7.62329653e-20
      -7.62329653e-20 -7.62329653e-20 -7.62329653e-20 -7.62329653e-20
      -7.62329653e-20 -7.62329653e-20 -7.62329653e-20 -7.62329653e-20
      -7.62329653e-20 -7.62329653e-20 -7.62329653e-20 -7.62329653e-20
      -7.62329653e-20 -7.62329653e-20 -7.62329653e-20 -7.62329653e-20
      -7.62329653e-20 -7.62329653e-20 -7.62329653e-20 -7.62329653e-20
      -7.62329653e-20 -7.62329653e-20 -7.62329653e-20 -7.62329653e-20
      -7.62329653e-20 -7.62329653e-20 -7.62329653e-20 -7.62329653e-20
      -7.62329653e-20 -7.62329653e-20 -7.62329653e-20 -7.62329653e-20
      -7.62329653e-20 -7.62329653e-20 -7.62329653e-20 -7.62329653e-20
      -7.62329653e-20 -7.62329653e-20 -7.62329653e-20 -7.62329653e-20
      -7.62329653e-20 -7.62329653e-20 -7.62329653e-20 -7.62329653e-20
      -7.62329653e-20 -7.62329653e-20 -7.62329653e-20 -7.62329653e-20
      -7.62329653e-20 -7.62329653e-20 -7.62329653e-20 -7.62329653e-20
      -7.62329653e-20 -7.62329653e-20 -7.62329653e-20 -7.62329653e-20
      -7.62329653e-20 -7.62329653e-20 -7.62329653e-20 -7.62329653e-20
      -7.62329653e-20 -7.62329653e-20 -7.62329653e-20 -7.62329653e-20
      -7.62329653e-20 -7.62329653e-20 -7.62329653e-20 -7.62329653e-20
      -7.62329653e-20 -7.62329653e-20 -7.62329653e-20 -7.62329653e-20
      -7.62329653e-20 -7.62329653e-20 -7.62329653e-20 -7.62329653e-20
      -7.62329653e-20 -7.62329653e-20 -7.62329653e-20 -7.62329653e-20
      -7.62329653e-20 -7.62329653e-20 -7.62329653e-20 -7.62329653e-20
      -7.62329653e-20 -7.62329653e-20 -7.62329653e-20 -7.62329653e-20
      -7.62329653e-20 -7.62329653e-20 -7.62329653e-20 -7.62329653e-20
      -7.62329653e-20 -7.62329653e-20 -7.62329653e-20 -7.62329653e-20
      -7.62329653e-20 -7.62329653e-20 -7.62329653e-20 -7.62329653e-20
      -7.62329653e-20 -7.62329653e-20 -7.62329653e-20 -7.62329653e-20
      -7.62329653e-20 -7.62329653e-20 -7.62329653e-20 -7.62329653e-20
      -7.62329653e-20 -7.62329653e-20 -7.62329653e-20 -7.62329653e-20
      -7.62329653e-20 -7.62329653e-20 -7.62329653e-20 -7.62329653e-20
      -7.62329653e-20 -7.62329653e-20 -7.62329653e-20 -7.62329653e-20
      -7.62329653e-20 -7.62329653e-20 -7.62329653e-20 -7.62329653e-20
      -7.62329653e-20 -7.62329653e-20 -7.62329653e-20 -7.62329653e-20
      -7.62329653e-20 -7.62329653e-20 -7.62329653e-20 -7.62329653e-20
      -7.62329653e-20 -7.62329653e-20 -7.62329653e-20 -7.62329653e-20
      -7.62329653e-20 -7.62329653e-20 -7.62329653e-20 -7.62329653e-20
      -7.62329653e-20 -7.62329653e-20 -7.62329653e-20 -7.62329653e-20
      -7.62329653e-20 -7.62329653e-20 -7.62329653e-20 -7.62329653e-20
      -7.62329653e-20 -7.62329653e-20 -7.62329653e-20 -7.62329653e-20
      -7.62329653e-20 -7.62329653e-20 -7.62329653e-20 -7.62329653e-20
      -7.62329653e-20 -7.62329653e-20 -7.62329653e-20 -7.62329653e-20
      -7.62329653e-20 -7.62329653e-20 -7.62329653e-20 -7.62329653e-20
      -7.62329653e-20 -7.62329653e-20 -7.62329653e-20 -7.62329653e-20
      -7.62329653e-20 -7.62329653e-20 -7.62329653e-20 -7.62329653e-20
      -7.62329653e-20 -7.62329653e-20 -7.62329653e-20 -7.62329653e-20
      -7.62329653e-20 -7.62329653e-20 -7.62329653e-20 -7.62329653e-20
      -7.62329653e-20 -7.62329653e-20 -7.62329653e-20 -7.62329653e-20
      -7.62329653e-20 -7.62329653e-20 -7.62329653e-20 -7.62329653e-20
      -7.62329653e-20 -7.62329653e-20 -7.62329653e-20 -7.62329653e-20
      -7.62329653e-20 -7.62329653e-20 -7.62329653e-20 -7.62329653e-20
      -7.62329653e-20 -7.62329653e-20 -7.62329653e-20 -7.62329653e-20
      -7.62329653e-20 -7.62329653e-20 -7.62329653e-20 -7.62329653e-20
      -7.62329653e-20 -7.62329653e-20 -7.62329653e-20 -7.62329653e-20
      -7.62329653e-20 -7.62329653e-20 -7.62329653e-20 -7.62329653e-20
      -7.62329653e-20 -7.62329653e-20 -7.62329653e-20 -7.62329653e-20
      -7.62329653e-20 -7.62329653e-20 -7.62329653e-20 -7.62329653e-20
      -7.62329653e-20 -7.62329653e-20 -7.62329653e-20 -7.62329653e-20
      -7.62329653e-20 -7.62329653e-20 -7.62329653e-20 -7.62329653e-20
      -7.62329653e-20 -7.62329653e-20 -7.62329653e-20 -7.62329653e-20
      -7.62329653e-20 -7.62329653e-20 -7.62329653e-20 -7.62329653e-20
      -7.62329653e-20 -7.62329653e-20 -7.62329653e-20 -7.62329653e-20
      -7.62329653e-20 -7.62329653e-20 -7.62329653e-20 -7.62329653e-20
      -7.62329653e-20 -7.62329653e-20 -7.62329653e-20 -7.62329653e-20
      -7.62329653e-20 -7.62329653e-20 -7.62329653e-20 -7.62329653e-20
      -7.62329653e-20 -7.62329653e-20 -7.62329653e-20 -7.62329653e-20
      -7.62329653e-20 -7.62329653e-20 -7.62329653e-20 -7.62329653e-20
      -7.62329653e-20 -7.62329653e-20 -7.62329653e-20 -7.62329653e-20
      -7.62329653e-20 -7.62329653e-20 -7.62329653e-20 -7.62329653e-20
      -7.62329653e-20 -7.62329653e-20 -7.62329653e-20 -7.62329653e-20
      -7.62329653e-20 -7.62329653e-20 -7.62329653e-20 -7.62329653e-20
      -7.62329653e-20 -7.62329653e-20 -7.62329653e-20 -7.62329653e-20
      -7.62329653e-20 -7.62329653e-20 -7.62329653e-20 -7.62329653e-20
      -7.62329653e-20 -7.62329653e-20 -7.62329653e-20 -7.62329653e-20
      -7.62329653e-20 -7.62329653e-20 -7.62329653e-20 -7.62329653e-20
      -7.62329653e-20 -7.62329653e-20 -7.62329653e-20 -7.62329653e-20
      -7.62329653e-20 -7.62329653e-20 -7.62329653e-20 -7.62329653e-20
      -7.62329653e-20 -7.62329653e-20 -7.62329653e-20 -7.62329653e-20
      -7.62329653e-20 -7.62329653e-20 -7.62329653e-20 -7.62329653e-20
      -7.62329653e-20 -7.62329653e-20 -7.62329653e-20 -7.62329653e-20
      -7.62329653e-20 -7.62329653e-20 -7.62329653e-20 -7.62329653e-20
      -7.62329653e-20 -7.62329653e-20 -7.62329653e-20 -7.62329653e-20
      -7.62329653e-20 -7.62329653e-20 -7.62329653e-20 -7.62329653e-20
      -7.62329653e-20 -7.62329653e-20 -7.62329653e-20 -7.62329653e-20
      -7.62329653e-20 -7.62329653e-20 -7.62329653e-20 -7.62329653e-20
      -7.62329653e-20 -7.62329653e-20 -7.62329653e-20 -7.62329653e-20
      -7.62329653e-20 -7.62329653e-20 -7.62329653e-20 -7.62329653e-20
      -7.62329653e-20 -7.62329653e-20 -7.62329653e-20 -7.62329653e-20
      -7.62329653e-20 -7.62329653e-20 -7.62329653e-20 -7.62329653e-20
      -7.62329653e-20 -7.62329653e-20 -7.62329653e-20 -7.62329653e-20
      -7.62329653e-20 -7.62329653e-20 -7.62329653e-20 -7.62329653e-20
      -7.62329653e-20 -7.62329653e-20 -7.62329653e-20 -7.62329653e-20
      -7.62329653e-20 -7.62329653e-20 -7.62329653e-20 -7.62329653e-20
      -7.62329653e-20 -7.62329653e-20 -7.62329653e-20 -7.62329653e-20
      -7.62329653e-20 -7.62329653e-20 -7.62329653e-20 -7.62329653e-20
      -7.62329653e-20 -7.62329653e-20 -7.62329653e-20 -7.62329653e-20
      -7.62329653e-20 -7.62329653e-20 -7.62329653e-20 -7.62329653e-20
      -7.62329653e-20 -7.62329653e-20 -7.62329653e-20 -7.62329653e-20
      -7.62329653e-20 -7.62329653e-20 -7.62329653e-20 -7.62329653e-20
      -7.62329653e-20 -7.62329653e-20 -7.62329653e-20 -7.62329653e-20
      -7.62329653e-20 -7.62329653e-20 -7.62329653e-20 -7.62329653e-20
      -7.62329653e-20 -7.62329653e-20 -7.62329653e-20 -7.62329653e-20
      -7.62329653e-20 -7.62329653e-20 -7.62329653e-20 -7.62329653e-20
      -7.62329653e-20 -7.62329653e-20 -7.62329653e-20 -7.62329653e-20
      -7.62329653e-20 -7.62329653e-20 -7.62329653e-20 -7.62329653e-20
      -7.62329653e-20 -7.62329653e-20 -7.62329653e-20 -7.62329653e-20
      -7.62329653e-20 -7.62329653e-20 -7.62329653e-20 -7.62329653e-20
      -7.62329653e-20 -7.62329653e-20 -7.62329653e-20 -7.62329653e-20
      -7.62329653e-20 -7.62329653e-20 -7.62329653e-20 -7.62329653e-20
      -7.62329653e-20 -7.62329653e-20 -7.62329653e-20 -7.62329653e-20
      -7.62329653e-20 -7.62329653e-20 -7.62329653e-20 -7.62329653e-20
      -7.62329653e-20 -7.62329653e-20 -7.62329653e-20 -7.62329653e-20
      -7.62329653e-20 -7.62329653e-20 -7.62329653e-20 -7.62329653e-20
      -7.62329653e-20 -7.62329653e-20 -7.62329653e-20 -7.62329653e-20
      -7.62329653e-20 -7.62329653e-20 -7.62329653e-20 -7.62329653e-20
      -7.62329653e-20 -7.62329653e-20 -7.62329653e-20 -7.62329653e-20
      -7.62329653e-20 -7.62329653e-20 -7.62329653e-20 -7.62329653e-20
      -7.62329653e-20 -7.62329653e-20 -7.62329653e-20 -7.62329653e-20
      -7.62329653e-20 -7.62329653e-20 -7.62329653e-20 -7.62329653e-20
      -7.62329653e-20 -7.62329653e-20 -7.62329653e-20 -7.62329653e-20
      -7.62329653e-20 -7.62329653e-20 -7.62329653e-20 -7.62329653e-20
      -7.62329653e-20 -7.62329653e-20 -7.62329653e-20 -7.62329653e-20
      -7.62329653e-20 -7.62329653e-20 -7.62329653e-20 -7.62329653e-20
      -7.62329653e-20 -7.62329653e-20 -7.62329653e-20 -7.62329653e-20
      -7.62329653e-20 -7.62329653e-20 -7.62329653e-20 -7.62329653e-20
      -7.62329653e-20 -7.62329653e-20 -7.62329653e-20 -7.62329653e-20
      -7.62329653e-20 -7.62329653e-20 -7.62329653e-20 -7.62329653e-20
      -7.62329653e-20 -7.62329653e-20 -7.62329653e-20 -7.62329653e-20
      -7.62329653e-20 -7.62329653e-20 -7.62329653e-20 -7.62329653e-20
      -7.62329653e-20 -7.62329653e-20 -7.62329653e-20 -7.62329653e-20
      -7.62329653e-20 -7.62329653e-20 -7.62329653e-20 -7.62329653e-20
      -7.62329653e-20 -7.62329653e-20 -7.62329653e-20 -7.62329653e-20
      -7.62329653e-20 -7.62329653e-20 -7.62329653e-20 -7.62329653e-20
      -7.62329653e-20 -7.62329653e-20 -7.62329653e-20 -7.62329653e-20
      -7.62329653e-20 -7.62329653e-20 -7.62329653e-20 -7.62329653e-20
      -7.62329653e-20 -7.62329653e-20 -7.62329653e-20 -7.62329653e-20
      -7.62329653e-20 -7.62329653e-20 -7.62329653e-20 -7.62329653e-20
      -7.62329653e-20 -7.62329653e-20 -7.62329653e-20 -7.62329653e-20
      -7.62329653e-20 -7.62329653e-20 -7.62329653e-20 -7.62329653e-20
      -7.62329653e-20 -7.62329653e-20 -7.62329653e-20 -7.62329653e-20
      -7.62329653e-20 -7.62329653e-20 -7.62329653e-20 -7.62329653e-20
      -7.62329653e-20 -7.62329653e-20 -7.62329653e-20 -7.62329653e-20
      -7.62329653e-20 -7.62329653e-20 -7.62329653e-20 -7.62329653e-20
      -7.62329653e-20 -7.62329653e-20 -7.62329653e-20 -7.62329653e-20
      -7.62329653e-20 -7.62329653e-20 -7.62329653e-20 -7.62329653e-20
      -7.62329653e-20 -7.62329653e-20 -7.62329653e-20 -7.62329653e-20
      -7.62329653e-20 -7.62329653e-20 -7.62329653e-20 -7.62329653e-20
      -7.62329653e-20 -7.62329653e-20 -7.62329653e-20 -7.62329653e-20
      -7.62329653e-20 -7.62329653e-20 -7.62329653e-20 -7.62329653e-20
      -7.62329653e-20 -7.62329653e-20 -7.62329653e-20 -7.62329653e-20
      -7.62329653e-20 -7.62329653e-20 -7.62329653e-20 -7.62329653e-20
      -7.62329653e-20 -7.62329653e-20 -7.62329653e-20 -7.62329653e-20
      -7.62329653e-20 -7.62329653e-20 -7.62329653e-20 -7.62329653e-20
      -7.62329653e-20 -7.62329653e-20 -7.62329653e-20 -7.62329653e-20
      -7.62329653e-20 -7.62329653e-20 -7.62329653e-20 -7.62329653e-20
      -7.62329653e-20 -7.62329653e-20 -7.62329653e-20 -7.62329653e-20
      -7.62329653e-20 -7.62329653e-20 -7.62329653e-20 -7.62329653e-20
      -7.62329653e-20 -7.62329653e-20 -7.62329653e-20 -7.62329653e-20
      -7.62329653e-20 -7.62329653e-20 -7.62329653e-20 -7.62329653e-20
      -7.62329653e-20 -7.62329653e-20 -7.62329653e-20 -7.62329653e-20
      -7.62329653e-20 -7.62329653e-20 -7.62329653e-20 -7.62329653e-20
      -7.62329653e-20 -7.62329653e-20 -7.62329653e-20 -7.62329653e-20
      -7.62329653e-20 -7.62329653e-20 -7.62329653e-20 -7.62329653e-20
      -7.62329653e-20 -7.62329653e-20 -7.62329653e-20 -7.62329653e-20
      -7.62329653e-20 -7.62329653e-20 -7.62329653e-20 -7.62329653e-20
      -7.62329653e-20 -7.62329653e-20 -7.62329653e-20 -7.62329653e-20
      -7.62329653e-20 -7.62329653e-20 -7.62329653e-20 -7.62329653e-20
      -7.62329653e-20 -7.62329653e-20 -7.62329653e-20 -7.62329653e-20
      -7.62329653e-20 -7.62329653e-20 -7.62329653e-20 -7.62329653e-20
      -7.62329653e-20 -7.62329653e-20 -7.62329653e-20 -7.62329653e-20
      -7.62329653e-20 -7.62329653e-20 -7.62329653e-20 -7.62329653e-20
      -7.62329653e-20 -7.62329653e-20 -7.62329653e-20 -7.62329653e-20
      -7.62329653e-20 -7.62329653e-20 -7.62329653e-20 -7.62329653e-20
      -7.62329653e-20 -7.62329653e-20 -7.62329653e-20 -7.62329653e-20
      -7.62329653e-20 -7.62329653e-20 -7.62329653e-20 -7.62329653e-20
      -7.62329653e-20 -7.62329653e-20 -7.62329653e-20 -7.62329653e-20
      -7.62329653e-20 -7.62329653e-20 -7.62329653e-20 -7.62329653e-20
      -7.62329653e-20 -7.62329653e-20 -7.62329653e-20 -7.62329653e-20
      -7.62329653e-20 -7.62329653e-20 -7.62329653e-20 -7.62329653e-20
      -7.62329653e-20 -7.62329653e-20 -7.62329653e-20 -7.62329653e-20
      -7.62329653e-20 -7.62329653e-20 -7.62329653e-20 -7.62329653e-20
      -7.62329653e-20 -7.62329653e-20 -7.62329653e-20 -7.62329653e-20
      -7.62329653e-20 -7.62329653e-20 -7.62329653e-20 -7.62329653e-20
      -7.62329653e-20 -7.62329653e-20 -7.62329653e-20 -7.62329653e-20
      -7.62329653e-20 -7.62329653e-20 -7.62329653e-20 -7.62329653e-20
      -7.62329653e-20 -7.62329653e-20 -7.62329653e-20 -7.62329653e-20
      -7.62329653e-20 -7.62329653e-20 -7.62329653e-20 -7.62329653e-20
      -7.62329653e-20 -7.62329653e-20 -7.62329653e-20 -7.62329653e-20
      -7.62329653e-20 -7.62329653e-20 -7.62329653e-20 -7.62329653e-20
      -7.62329653e-20 -7.62329653e-20 -7.62329653e-20 -7.62329653e-20
      -7.62329653e-20 -7.62329653e-20 -7.62329653e-20 -7.62329653e-20
      -7.62329653e-20 -7.62329653e-20 -7.62329653e-20 -7.62329653e-20
      -7.62329653e-20 -7.62329653e-20 -7.62329653e-20 -7.62329653e-20
      -7.62329653e-20 -7.62329653e-20 -7.62329653e-20 -7.62329653e-20
      -7.62329653e-20 -7.62329653e-20 -7.62329653e-20 -7.62329653e-20
      -7.62329653e-20 -7.62329653e-20 -7.62329653e-20 -7.62329653e-20
      -7.62329653e-20 -7.62329653e-20 -7.62329653e-20 -7.62329653e-20
      -7.62329653e-20 -7.62329653e-20 -7.62329653e-20 -7.62329653e-20
      -7.62329653e-20 -7.62329653e-20 -7.62329653e-20 -7.62329653e-20
      -7.62329653e-20 -7.62329653e-20 -7.62329653e-20 -7.62329653e-20
      -7.62329653e-20 -7.62329653e-20 -7.62329653e-20 -7.62329653e-20
      -7.62329653e-20 -7.62329653e-20 -7.62329653e-20 -7.62329653e-20
      -7.62329653e-20 -7.62329653e-20 -7.62329653e-20 -7.62329653e-20
      -7.62329653e-20 -7.62329653e-20 -7.62329653e-20 -7.62329653e-20
      -7.62329653e-20 -7.62329653e-20 -7.62329653e-20 -7.62329653e-20
      -7.62329653e-20 -7.62329653e-20 -7.62329653e-20 -7.62329653e-20
      -7.62329653e-20 -7.62329653e-20 -7.62329653e-20 -7.62329653e-20
      -7.62329653e-20 -7.62329653e-20 -7.62329653e-20 -7.62329653e-20
      -7.62329653e-20 -7.62329653e-20 -7.62329653e-20 -7.62329653e-20
      -7.62329653e-20 -7.62329653e-20 -7.62329653e-20 -7.62329653e-20
      -7.62329653e-20 -7.62329653e-20 -7.62329653e-20 -7.62329653e-20
      -7.62329653e-20 -7.62329653e-20 -7.62329653e-20 -7.62329653e-20
      -7.62329653e-20 -7.62329653e-20 -7.62329653e-20 -7.62329653e-20
      -7.62329653e-20 -7.62329653e-20 -7.62329653e-20 -7.62329653e-20
      -7.62329653e-20 -7.62329653e-20 -7.62329653e-20 -7.62329653e-20
      -7.62329653e-20 -7.62329653e-20 -7.62329653e-20 -7.62329653e-20
      -7.62329653e-20 -7.62329653e-20 -7.62329653e-20 -7.62329653e-20
      -7.62329653e-20 -7.62329653e-20 -7.62329653e-20 -7.62329653e-20
      -7.62329653e-20 -7.62329653e-20 -7.62329653e-20 -7.62329653e-20
      -7.62329653e-20 -7.62329653e-20 -7.62329653e-20 -7.62329653e-20
      -7.62329653e-20 -7.62329653e-20 -7.62329653e-20 -7.62329653e-20
      -7.62329653e-20 -7.62329653e-20 -7.62329653e-20 -7.62329653e-20
      -7.62329653e-20 -7.62329653e-20 -7.62329653e-20 -7.62329653e-20
      -7.62329653e-20 -7.62329653e-20 -7.62329653e-20 -7.62329653e-20
      -7.62329653e-20 -7.62329653e-20 -7.62329653e-20 -7.62329653e-20
      -7.62329653e-20 -7.62329653e-20 -7.62329653e-20 -7.62329653e-20
      -7.62329653e-20 -7.62329653e-20 -7.62329653e-20 -7.62329653e-20
      -7.62329653e-20 -7.62329653e-20 -7.62329653e-20 -7.62329653e-20
      -7.62329653e-20 -7.62329653e-20 -7.62329653e-20 -7.62329653e-20
      -7.62329653e-20 -7.62329653e-20 -7.62329653e-20 -7.62329653e-20
      -7.62329653e-20 -7.62329653e-20 -7.62329653e-20 -7.62329653e-20
      -7.62329653e-20 -7.62329653e-20 -7.62329653e-20 -7.62329653e-20
      -7.62329653e-20 -7.62329653e-20 -7.62329653e-20 -7.62329653e-20
      -7.62329653e-20 -7.62329653e-20 -7.62329653e-20 -7.62329653e-20
      -7.62329653e-20 -7.62329653e-20 -7.62329653e-20 -7.62329653e-20
      -7.62329653e-20 -7.62329653e-20 -7.62329653e-20 -7.62329653e-20
      -7.62329653e-20 -7.62329653e-20 -7.62329653e-20 -7.62329653e-20
      -7.62329653e-20 -7.62329653e-20 -7.62329653e-20 -7.62329653e-20
      -7.62329653e-20 -7.62329653e-20 -7.62329653e-20 -7.62329653e-20
      -7.62329653e-20 -7.62329653e-20 -7.62329653e-20 -7.62329653e-20
      -7.62329653e-20 -7.62329653e-20 -7.62329653e-20 -7.62329653e-20
      -7.62329653e-20 -7.62329653e-20 -7.62329653e-20 -7.62329653e-20
      -7.62329653e-20 -7.62329653e-20 -7.62329653e-20 -7.62329653e-20
      -7.62329653e-20 -7.62329653e-20 -7.62329653e-20 -7.62329653e-20
      -7.62329653e-20 -7.62329653e-20 -7.62329653e-20 -7.62329653e-20
      -7.62329653e-20 -7.62329653e-20 -7.62329653e-20 -7.62329653e-20
      -7.62329653e-20 -7.62329653e-20 -7.62329653e-20 -7.62329653e-20
      -7.62329653e-20 -7.62329653e-20 -7.62329653e-20 -7.62329653e-20
      -7.62329653e-20 -7.62329653e-20 -7.62329653e-20 -7.62329653e-20
      -7.62329653e-20 -7.62329653e-20 -7.62329653e-20 -7.62329653e-20
      -7.62329653e-20 -7.62329653e-20 -7.62329653e-20 -7.62329653e-20
      -7.62329653e-20 -7.62329653e-20 -7.62329653e-20 -7.62329653e-20
      -7.62329653e-20 -7.62329653e-20 -7.62329653e-20 -7.62329653e-20
      -7.62329653e-20 -7.62329653e-20 -7.62329653e-20 -7.62329653e-20
      -7.62329653e-20 -7.62329653e-20 -7.62329653e-20 -7.62329653e-20
      -7.62329653e-20 -7.62329653e-20 -7.62329653e-20 -7.62329653e-20
      -7.62329653e-20 -7.62329653e-20 -7.62329653e-20 -7.62329653e-20
      -7.62329653e-20 -7.62329653e-20 -7.62329653e-20 -7.62329653e-20
      -7.62329653e-20 -7.62329653e-20 -7.62329653e-20 -7.62329653e-20
      -7.62329653e-20 -7.62329653e-20 -7.62329653e-20 -7.62329653e-20
      -7.62329653e-20 -7.62329653e-20 -7.62329653e-20 -7.62329653e-20
      -7.62329653e-20 -7.62329653e-20 -7.62329653e-20 -7.62329653e-20
      -7.62329653e-20 -7.62329653e-20 -7.62329653e-20 -7.62329653e-20
      -7.62329653e-20 -7.62329653e-20 -7.62329653e-20 -7.62329653e-20
      -7.62329653e-20 -7.62329653e-20 -7.62329653e-20 -7.62329653e-20
      -7.62329653e-20 -7.62329653e-20 -7.62329653e-20 -7.62329653e-20
      -7.62329653e-20 -7.62329653e-20 -7.62329653e-20 -7.62329653e-20
      -7.62329653e-20 -7.62329653e-20 -7.62329653e-20 -7.62329653e-20
      -7.62329653e-20 -7.62329653e-20 -7.62329653e-20 -7.62329653e-20
      -7.62329653e-20 -7.62329653e-20 -7.62329653e-20 -7.62329653e-20
      -7.62329653e-20 -7.62329653e-20 -7.62329653e-20 -7.62329653e-20
      -7.62329653e-20 -7.62329653e-20 -7.62329653e-20 -7.62329653e-20
      -7.62329653e-20 -7.62329653e-20 -7.62329653e-20 -7.62329653e-20
      -7.62329653e-20 -7.62329653e-20 -7.62329653e-20 -7.62329653e-20
      -7.62329653e-20 -7.62329653e-20 -7.62329653e-20 -7.62329653e-20
      -7.62329653e-20 -7.62329653e-20 -7.62329653e-20 -7.62329653e-20
      -7.62329653e-20 -7.62329653e-20 -7.62329653e-20 -7.62329653e-20
      -7.62329653e-20 -7.62329653e-20 -7.62329653e-20 -7.62329653e-20
      -7.62329653e-20 -7.62329653e-20 -7.62329653e-20 -7.62329653e-20
      -7.62329653e-20 -7.62329653e-20 -7.62329653e-20 -7.62329653e-20
      -7.62329653e-20 -7.62329653e-20 -7.62329653e-20 -7.62329653e-20
      -7.62329653e-20 -7.62329653e-20 -7.62329653e-20 -7.62329653e-20
      -7.62329653e-20 -7.62329653e-20 -7.62329653e-20 -7.62329653e-20
      -7.62329653e-20 -7.62329653e-20 -7.62329653e-20 -7.62329653e-20
      -7.62329653e-20 -7.62329653e-20 -7.62329653e-20 -7.62329653e-20
      -7.62329653e-20 -7.62329653e-20 -7.62329653e-20 -7.62329653e-20
      -7.62329653e-20 -7.62329653e-20 -7.62329653e-20 -7.62329653e-20
      -7.62329653e-20 -7.62329653e-20 -7.62329653e-20 -7.62329653e-20
      -7.62329653e-20 -7.62329653e-20 -7.62329653e-20 -7.62329653e-20
      -7.62329653e-20 -7.62329653e-20 -7.62329653e-20 -7.62329653e-20
      -7.62329653e-20 -7.62329653e-20 -7.62329653e-20 -7.62329653e-20
      -7.62329653e-20 -7.62329653e-20 -7.62329653e-20 -7.62329653e-20
      -7.62329653e-20 -7.62329653e-20 -7.62329653e-20 -7.62329653e-20
      -7.62329653e-20 -7.62329653e-20 -7.62329653e-20 -7.62329653e-20
      -7.62329653e-20 -7.62329653e-20 -7.62329653e-20 -7.62329653e-20
      -7.62329653e-20 -7.62329653e-20 -7.62329653e-20 -7.62329653e-20
      -7.62329653e-20 -7.62329653e-20 -7.62329653e-20 -7.62329653e-20
      -7.62329653e-20 -7.62329653e-20 -7.62329653e-20 -7.62329653e-20
      -7.62329653e-20 -7.62329653e-20 -7.62329653e-20 -7.62329653e-20</_></support_vectors>
  <uncompressed_sv_total>2</uncompressed_sv_total>
  <uncompressed_support_vectors>
    <_>
      251. 255. 254. 255. 254. 255. 251. 255. 255. 255. 247. 255. 247.
      255. 161. 255. 255. 255. 255. 255. 251. 255. 255. 255. 244. 255.
      240. 255. 154. 255. 247. 255. 247. 255. 243. 255. 255. 255. 244.
      255. 240. 255. 154. 255. 255. 255. 255. 255. 255. 255. 255. 255.
      255. 255. 255. 255. 168. 255. 244. 255. 240. 255. 240. 255. 255.
      255. 255. 255. 223. 255. 255. 255. 182. 255. 255. 255. 240. 255.
      255. 255. 251. 255. 240. 255. 255. 255. 251. 255. 239. 255. 255.
      255. 239. 255. 240. 255. 255. 255. 255. 255. 240. 255. 255. 255.
      255. 255. 240. 255. 255. 255. 255. 255. 240. 255. 255. 255. 255.
      255. 240. 255. 255. 255. 255. 255. 255. 255. 255. 255. 255. 255.
      255. 255. 255. 255. 255. 255. 255. 255. 255. 255. 255. 255. 255.
      255. 255. 255. 255. 255. 255. 255. 255. 255. 255. 255. 255. 255.
      255. 255. 255. 255. 255. 255. 255. 255. 255. 255. 255. 255. 255.
      255. 255. 255. 255. 255. 255. 255. 255. 255. 255. 255. 255. 255.
      255. 255. 255. 255. 255. 255. 255. 255. 255. 255. 255. 255. 255.
      255. 255. 255. 255. 255. 255. 255. 255. 255. 255. 255. 255. 255.
      255. 255. 255. 255. 255. 255. 255. 255. 255. 255. 255. 255. 255.
      255. 255. 255. 255. 255. 255. 255. 255. 255. 255. 255. 255. 255.
      255. 255. 255. 255. 255. 255. 255. 255. 255. 255. 255. 255. 255.
      255. 255. 255. 255. 255. 255. 255. 255. 255. 197. 128. 128. 191.
      255. 244. 244. 255. 244. 162. 191. 216. 189. 255. 175. 255. 160.
      204. 255. 184. 244. 164. 174. 255. 255. 255. 255. 255. 255. 255.
      255. 255. 255. 255. 255. 255. 255. 255. 255. 255. 255. 255. 255.
      255. 255. 255. 255. 255. 255. 255. 255. 255. 255. 255. 255. 255.
      255. 255. 255. 255. 255. 255. 255. 255. 255. 255. 255. 255. 255.
      255. 255. 255. 255. 255. 255. 255. 255. 255. 255. 255. 255. 255.
      255. 255. 255. 255. 255. 255. 255. 255. 255. 255. 255. 255. 255.
      255. 255. 255. 255. 255. 255. 255. 255. 255. 255. 255. 255. 255.
      255. 255. 255. 255. 255. 255. 255. 255. 255. 255. 255. 255. 255.
      255. 255. 255. 255. 255. 255. 255. 255. 255. 255. 255. 255. 255.
      255. 255. 255. 255. 255. 255. 255. 255. 255. 255. 255. 255. 255.
      255. 255. 255. 255. 255. 255. 255. 255. 255. 255. 255. 255. 255.
      255. 255. 255. 255. 255. 255. 255. 255. 255. 255. 255. 255. 255.
      255. 255. 255. 255. 255. 255. 255. 255. 255. 255. 255. 255. 255.
      255. 255. 255. 255. 255. 255. 255. 255. 255. 255. 255. 255. 255.
      255. 255. 255. 255. 255. 255. 255. 255. 255. 255. 255. 255. 255.
      255. 255. 255. 255. 255. 255. 255. 255. 255. 255. 255. 255. 255.
      255. 255. 255. 255. 255. 255. 255. 255. 255. 255. 255. 255. 255.
      255. 255. 255. 255. 255. 255. 255. 255. 255. 255. 255. 255. 255.
      255. 255. 255. 255. 255. 255. 255. 255. 255. 255. 255. 255. 255.
      255. 255. 255. 255. 255. 255. 255. 255. 255. 255. 255. 255. 255.
      255. 255. 255. 255. 255. 255. 255. 255. 255. 255. 255. 255. 255.
      255. 255. 255. 255. 255. 255. 255. 255. 255. 255. 255. 255. 255.
      255. 255. 255. 255. 255. 255. 255. 255. 255. 255. 255. 255. 255.
      255. 255. 255. 255. 255. 255. 255. 255. 255. 255. 255. 255. 255.
      255. 255. 255. 255. 255. 255. 255. 255. 255. 255. 255. 255. 255.
      255. 255. 255. 255. 255. 255. 255. 255. 255. 255. 255. 255. 255.
      255. 255. 255. 255. 255. 255. 255. 255. 255. 255. 255. 255. 255.
      255. 255. 255. 255. 255. 255. 255. 255. 255. 255. 255. 255. 255.
      255. 255. 255. 255. 255. 255. 255. 255. 255. 255. 255. 255. 255.
      255. 255. 255. 255. 255. 255. 255. 255. 255. 255. 255. 255. 255.
      255. 255. 255. 255. 255. 255. 255. 255. 255. 255. 255. 255. 255.
      255. 255. 255. 255. 255. 255. 255. 255. 255. 255. 255. 255. 255.
      255. 255. 255. 255. 255. 255. 255. 255. 255. 255. 255. 255. 255.
      255. 255. 255. 255. 255. 255. 255. 255. 251. 255. 255. 255. 251.
      255. 255. 255. 240. 255. 255. 255. 255. 255. 255. 255. 240. 255.
      255. 255. 255. 255. 128. 255. 255. 255. 255. 255. 254. 255. 255.
      255. 255. 255. 255. 255. 255. 255. 255. 255. 255. 255. 255. 255.
      255. 255. 255. 255. 240. 255. 255. 255. 254. 255. 251. 255. 251.
      255. 240. 255. 255. 255. 255. 252. 251. 250. 239. 255. 255. 251.
      240. 250. 239. 255. 255. 195. 255. 251. 251. 255. 255. 195. 255.
      250. 239. 255. 255. 251. 247. 255. 255. 255. 255. 195. 255. 249.
      239. 255. 255. 250. 240. 251. 247. 255. 255. 251. 247. 249. 239.
      255. 255. 250. 239. 252. 251. 255. 255. 255. 255. 249. 239. 255.
      188. 162. 182. 178. 166. 176. 151. 168. 165. 151. 155. 171. 154.
      147. 182. 168. 219. 149. 202. 162. 179. 198. 231. 201. 202. 218.
      202. 216. 219. 215. 200. 196. 200. 218. 219. 203. 230. 199. 223.
      202. 218. 218. 229. 198. 227. 198. 227. 199. 202. 200. 202. 201.
      202. 227. 203. 200. 218. 226. 199. 200. 201. 215. 226. 202. 255.
      255. 255. 255. 255. 255. 255. 255. 255. 255. 247. 255. 247. 255.
      255. 255. 255. 255. 255. 255. 255. 255. 255. 255. 255. 255. 243.
      255. 243. 255. 255. 255. 255. 255. 255. 255. 255. 255. 255. 255.
      255. 255. 243. 255. 243. 255. 255. 255. 255. 255. 255. 255. 255.
      255. 255. 255. 255. 255. 243. 255. 243. 255. 255. 255. 255. 255.
      255. 255. 255. 255. 255. 255. 255. 255. 255. 255. 243. 255. 255.
      255. 255. 255. 255. 255. 255. 255. 255. 255. 255. 255. 255. 255.
      242. 255. 255. 255. 255. 255. 255. 255. 255. 255. 255. 255. 255.
      255. 255. 255. 255. 255. 255. 255. 255. 255. 255. 255. 255. 255.
      255. 255. 255. 255. 255. 255. 255. 255. 255. 255. 255. 255. 255.
      255. 255. 255. 255. 255. 255. 255. 255. 255. 255. 255. 255. 255.
      255. 255. 255. 255. 255. 255. 255. 255. 255. 255. 255. 255. 255.
      255. 255. 255. 255. 255. 255. 255. 255. 255. 255. 255. 255. 255.
      255. 255. 255. 255. 255. 255. 255. 255. 255. 255. 255. 255. 255.
      255. 255. 255. 255. 255. 255. 255. 255. 255. 255. 255. 255. 255.
      255. 255. 255. 255. 255. 255. 255. 255. 255. 255. 255. 255. 255.
      255. 255. 255. 255. 255. 255. 255. 255. 255. 255. 255. 255. 255.
      255. 255. 255. 255. 255. 255. 255. 255. 255. 255. 255. 255. 255.
      255. 255. 255. 255. 255. 255. 255. 255. 255. 255. 255. 255. 255.
      255. 255. 255. 255. 255. 255. 255. 255. 255. 255. 255. 255. 255.
      255. 255. 255. 255. 255. 255. 255. 255. 255. 255. 255. 255. 255.
      255. 255. 255. 255. 255. 255. 255. 255. 255. 255. 255. 255. 255.
      255. 255. 255. 255. 255. 255. 255. 255. 255. 255. 255. 255. 255.
      255. 255. 255. 255. 255. 255. 255. 255. 255. 255. 255. 255. 255.
      255. 255. 255. 255. 255. 255. 255. 255. 255. 255. 255. 255. 255.
      255. 255. 255. 255. 255. 255. 255. 255. 255. 255. 255. 255. 255.
      255. 255. 255. 255. 255. 255. 255. 255. 255. 255. 255. 255. 255.
      255. 255. 255. 255. 255. 255. 255. 255. 255. 255. 255. 255. 255.
      255. 255. 255. 255. 255. 255. 255. 255. 255. 255. 255. 255. 255.
      255. 255. 255. 255. 255. 255. 255. 255. 255. 255. 255. 255. 255.
      255. 255. 255. 255. 255. 255. 255. 255. 255. 255. 255. 255. 255.
      255. 255. 255. 255. 255. 255. 255. 255. 255. 255. 255. 255. 255.
      255. 255. 255. 255. 255. 255. 255. 255. 255. 255. 255. 255. 255.
      255. 255. 255. 255. 255. 255. 255. 255. 255. 255. 255. 255. 255.
      255. 255. 255. 255. 255. 255. 255. 255. 255. 255. 255. 255. 255.
      255. 255. 255. 255. 255. 255. 255. 255. 255. 255. 255. 255. 255.
      255. 255. 255. 255. 255. 255. 255. 255. 255. 255. 255. 255. 255.
      255. 255. 255. 255. 255. 255. 255. 255. 255. 255. 255. 255. 255.
      255. 255. 255. 255. 255. 255. 255. 255. 255. 255. 255. 255. 255.
      255. 255. 255. 255. 255. 255. 255. 255. 255. 255. 255. 255. 255.
      255. 255. 255. 255. 255. 255. 255. 255. 255. 255. 255. 255. 255.
      255. 255. 255. 255. 255. 255. 255. 255. 255. 255. 255. 255. 255.
      255. 255. 255. 255. 255. 255. 255. 255. 255. 255. 255. 255. 255.
      255. 255. 255. 255. 255. 255. 255. 255. 255. 255. 255. 255. 255.
      255. 255. 255. 255. 255. 255. 255. 255. 255. 255. 255. 255. 255.
      255. 255. 255. 255. 255. 255. 255. 255. 255. 255. 255. 255. 255.
      255. 255. 255. 255. 255. 255. 255. 255. 255. 255. 255. 255. 255.
      255. 255. 255. 255. 255. 255. 255. 255. 255. 255. 255. 255. 255.
      255. 255. 255. 255. 255. 255. 255. 255. 255. 255. 255. 255. 255.
      255. 255. 255. 255. 255. 255. 255. 255. 255. 255. 255. 255. 255.
      255. 255. 255. 255. 255. 255. 255. 255. 255. 255. 255. 255. 255.
      255. 255. 255. 255. 255. 255. 255. 255. 255. 255. 255. 255. 255.
      255. 255. 255. 255. 255. 255. 255. 255. 255. 255. 255. 255. 255.
      255. 255. 255. 255. 255. 255. 255. 255. 255. 255. 255. 255. 255.
      255. 255. 255. 255. 255. 255. 255. 255. 255. 255. 255. 255. 255.
      255. 255. 255. 255. 255. 255. 255. 255. 255. 255. 255. 255. 255.
      255. 255. 255. 255. 255. 255. 255. 255. 255. 255. 255. 255. 255.
      255. 255. 255. 255. 255. 255. 255. 255. 255. 255. 255. 255. 255.
      255. 255. 255. 255. 255. 255. 255. 255. 255. 255. 255. 255. 255.
      255. 255. 255. 255. 255. 255. 255. 255. 255. 255. 255. 255. 255.
      255. 255. 255. 255. 255. 255. 255. 255. 255. 255. 255. 255. 255.
      255. 255. 255. 255. 255. 255. 255. 255. 255. 255. 255. 255. 255.
      255. 255. 255. 255. 255. 255. 255. 255. 255. 255. 255. 255. 255.
      255. 255. 255. 255. 255. 255. 255. 255. 255. 255. 255. 255. 255.
      255. 255. 255. 255. 255. 255. 255. 255. 255. 255. 255. 255. 255.
      255. 255. 255. 255. 255. 255. 255. 255. 255. 255. 255. 255. 255.
      255. 255. 255. 255. 255. 255. 255. 255. 255. 255. 255. 255. 255.
      255. 255. 255. 255. 255. 255. 255. 255. 255. 255. 255. 255. 255.
      255. 255. 255. 255. 255. 255. 255. 255. 255. 255. 255. 255. 255.
      255. 255. 255. 255. 255. 255. 255. 255. 255. 255. 255. 255. 255.
      255. 255. 255. 255. 255. 255. 255. 255. 255. 255. 255. 255. 255.
      255. 255. 255. 255. 255. 255. 255. 255. 255. 255. 255. 255. 255.
      255. 255. 255. 255. 255. 255. 255. 255. 255. 255. 255. 255. 255.
      255. 255. 255. 255. 255. 255. 255. 255. 255. 255. 255. 255. 255.
      255. 255. 255. 255. 255. 255. 255. 255. 255. 255. 255. 255. 255.
      255. 255. 255. 255. 255. 255. 255. 255. 255. 255. 255. 255. 255.
      255. 255. 255. 255. 255. 255. 255. 255. 255. 255. 255. 255. 255.
      255. 255. 255. 255. 255. 255. 255. 255. 255. 255. 255. 255. 255.
      255. 255. 255. 255. 255. 255. 255. 255. 255. 255. 255. 255. 255.
      255. 255. 255. 255. 255. 255. 255. 255. 255. 255. 255. 255. 255.
      255. 255. 255. 255. 255. 255. 255. 255. 255. 255. 255. 255. 255.
      255. 255. 255. 255. 255. 255. 255. 255. 255. 255. 255. 255. 255.
      255. 255. 255. 255. 255. 255. 255. 255. 255. 255. 255. 255. 255.
      255. 255. 255. 255. 255. 255. 255. 255. 255. 255. 255. 255. 255.
      255. 255. 255. 255. 255. 255. 255. 255. 255. 255. 255. 255. 255.
      255. 255. 255. 255. 255. 255. 255. 255. 255. 255. 255. 255. 255.
      255. 255. 255. 255. 255. 255. 255. 255. 255. 255. 255. 255. 255.
      255. 255. 255. 255. 255. 255. 255. 255. 255. 255. 255. 255. 255.
      255. 255. 255. 255. 255. 255. 255. 255. 255. 255. 255. 255. 255.
      255. 255. 255. 255. 255. 255. 255. 255. 255. 255. 255. 255. 255.
      255. 255. 255. 255. 255. 255. 255. 255. 255. 255. 255. 255. 255.
      255. 255. 255. 255. 255. 255. 255. 255. 255. 255. 255. 255. 255.
      255. 255. 255. 255. 255. 255. 255. 255. 255. 255. 255. 255. 255.
      255. 255. 255. 255. 255. 255. 255. 255. 255. 255. 255. 255. 255.
      255. 255. 255. 255. 255. 255. 255. 255. 255. 255. 255. 255. 255.
      255. 255. 255. 255. 255. 255. 255. 255. 255. 255. 255. 255. 255.
      255. 255. 255. 255. 255. 255. 255. 255. 255. 255. 255. 255. 255.
      255. 255. 255. 255. 255. 255. 255. 255. 255. 255. 255. 255. 255.
      255. 255. 255. 255. 255. 255. 255. 255. 255. 255. 255. 255. 255.
      255. 255. 255. 255. 255. 255. 255. 255. 255. 255. 255. 255. 255.
      255. 255. 255. 255. 255. 255. 255. 255. 255. 255. 255. 255. 255.
      255. 255. 255. 255. 255. 255. 255. 255. 255. 255. 255. 255. 255.
      255. 255. 255. 255. 255. 255. 255. 255. 255. 255. 255. 255. 255.
      255. 255. 255. 255. 255. 255. 255. 255. 255. 255. 255. 255. 255.
      255. 255. 255. 255. 255. 255. 255. 255. 255. 255. 255. 255. 255.
      255. 255. 255. 255. 255. 255. 255. 255. 255. 255. 255. 255. 255.
      255. 255. 255. 255. 255. 255. 255. 255. 255. 255. 255. 255. 255.
      255. 255. 255. 255. 255. 255. 255. 255. 255. 255. 255. 255. 255.
      255. 255. 255. 255. 255. 255. 255. 255. 255. 255. 255. 255. 255.
      255. 255. 255. 255. 255. 255. 255. 255. 255. 255. 255. 255. 255.
      255. 255. 255. 255. 255. 255. 255. 255. 255. 255. 255. 255. 255.
      255. 255. 255. 255. 255. 255. 255. 255. 255. 255. 255. 255. 255.
      255. 255. 255. 255. 255. 255. 255. 255. 255. 255. 255. 255. 255.
      255. 255. 255. 255. 255. 255. 255. 255. 255. 255. 255. 255. 255.
      255. 255. 255. 255. 255. 255. 255. 255. 255. 255. 255. 255. 255.
      255. 255. 255. 255. 255. 255. 255. 255. 255. 255. 255. 255. 255.
      255. 255. 255. 255. 255. 255. 255. 255. 255. 255. 255. 255. 255.
      255. 255. 255. 255. 255. 255. 255. 255. 255. 255. 255. 255. 255.
      255. 255. 255. 255. 255. 255. 255. 255. 255. 255. 255. 255. 255.
      255. 255. 255. 255. 255. 255. 255. 255. 255. 255. 255. 255. 255.
      255. 255. 255. 255. 255. 255. 255. 255. 255. 255. 255. 255. 255.
      255. 255. 255. 255. 255. 255. 255. 255. 255. 255. 255. 255. 255.
      255. 255. 255. 255. 255. 255. 255. 255. 255. 255. 255. 255. 255.
      255. 255. 255. 255. 255. 255. 255. 255. 255. 255. 255. 255. 255.
      255. 255. 255. 255. 255. 255. 255. 255. 255. 255. 255. 255. 255.
      255. 255. 255. 255. 255. 255. 255. 255. 255. 255. 255. 255. 255.
      255. 255. 255. 255. 255. 255. 255. 255. 255. 255. 255. 255. 255.
      255. 255. 255. 255. 255. 255. 255. 255. 255. 255. 255. 255. 255.
      255. 255. 255. 255. 255. 255. 255. 255. 255. 255. 255. 255. 255.
      255. 255. 255. 255. 255. 255. 255. 255. 255. 255. 255. 255. 255.
      255. 255. 255. 255. 255. 255. 255. 255. 255. 255. 255. 255. 255.
      255. 255. 255. 255. 255. 255. 255. 255. 255. 255. 255. 255. 255.
      255. 255. 255. 255. 255. 255. 255. 255. 255. 255. 255. 255. 255.
      255. 255. 255. 255. 255. 255. 255. 255. 255. 255. 255. 255. 255.
      255. 255. 255. 255. 255. 255. 255. 255. 255. 255. 255. 255. 255.
      255. 255. 255. 255. 255. 255. 255. 255. 255. 255. 255. 255. 255.
      255. 255. 255. 255. 255. 255. 255. 255. 255. 255. 255. 255. 255.
      255. 255. 255. 255. 255. 255. 255. 255. 255. 255. 255. 255. 255.
      255. 255. 255. 255. 255. 255. 255. 255. 255. 255. 255. 255. 255.
      255. 255. 255. 255. 255. 255. 255. 255. 255. 255. 255. 255. 255.
      255. 255. 255. 255. 255. 255. 255. 255. 255. 255. 255. 255. 255.
      255. 255. 255. 255. 255. 255. 255. 255. 255. 255. 255. 255. 255.
      255. 255. 255. 255. 255. 255. 255. 255. 255. 255. 255. 255. 255.
      255. 255. 255. 255. 255. 255. 255. 255. 255. 255. 255. 255. 255.
      255. 255. 255. 255. 255. 255. 255. 255. 255. 255. 255. 255. 255.
      255. 255. 255. 255. 255. 255. 255. 255. 255. 255. 255. 255. 255.
      255. 255. 255. 255. 255. 255. 255. 255. 255. 255. 255. 255. 255.
      255. 255. 255. 255. 255. 255. 255. 255. 255. 255. 255. 255. 255.
      255. 255. 255. 255. 255. 255. 255. 255. 255. 255. 255. 255. 255.
      255. 255. 255. 255. 255. 255. 255. 255. 255. 255. 255. 255. 255.
      255. 255. 255. 255. 255. 255. 255. 255. 255. 255. 255. 255. 255.
      255. 255. 255. 255. 255. 255. 255. 255. 255. 255. 255. 255. 255.
      255. 255. 255. 255. 255. 255. 255. 255. 255. 255. 255. 255. 255.
      255. 255. 255. 255. 255. 255. 255. 255. 255. 255. 255. 255. 255.
      255. 255. 255. 255. 255. 255. 255. 255. 255. 255. 255. 255. 255.
      255. 255. 255. 255. 255. 255. 255. 255. 255. 255. 255. 255. 255.
      255. 255. 255. 255. 255. 255. 255. 255. 255. 255. 255. 255. 255.
      255. 255. 255. 255. 255. 255. 255. 255. 255. 255. 255. 255. 255.
      255. 255. 255. 255. 255. 255. 255. 255. 255. 255. 255. 255. 255.
      255. 255. 255. 255. 255. 255. 255. 255. 255. 255. 255. 255. 255.
      255. 255. 255. 255. 255. 255. 255. 255. 255. 255. 255. 255. 255.
      255. 255. 255. 255. 255. 255. 255. 255. 255. 255. 255. 255. 255.
      255. 255. 255. 255. 255. 255. 255. 255. 255. 255. 255. 255. 255.
      255. 255. 255. 255. 255. 255. 255. 255. 255. 255. 255. 255. 255.
      255. 255. 255. 255. 255. 255. 255. 255. 255. 255. 255. 255. 255.
      255. 255. 255. 255. 255. 255. 255. 255. 255. 255. 255. 255. 255.
      255. 255. 255. 255. 255. 255. 255. 255. 255. 255. 255. 255. 255.
      255. 255. 255. 255. 255. 255. 255. 255. 255. 255. 255. 255. 255.
      255. 255. 255. 255. 255. 255. 255. 255. 255. 255. 255. 255. 255.
      255. 255. 255. 255. 255. 255. 255. 255. 255. 255. 255. 255. 255.
      255. 255. 255. 255. 255. 255. 255. 255. 255. 255. 255. 255. 255.
      255. 255. 255. 255. 255. 255. 255. 255. 255. 255. 255. 255. 255.
      255. 255. 255. 255. 255. 255. 255. 255. 255. 255. 255. 255. 255.
      255. 255. 255. 255. 255. 255. 255. 255. 255. 255. 255. 255. 255.
      255. 255. 255. 255. 255. 255. 255. 255. 255. 255. 255. 255. 255.
      255. 255. 255. 255. 255. 255. 255. 255. 255. 255. 255. 255. 255.
      255. 255. 255. 255. 255. 255. 255. 255. 255. 255. 255. 255. 255.
      255. 255. 255. 255. 255. 255. 255. 255. 255. 255. 255. 255. 255.
      255. 255. 255. 255. 255. 255. 255. 255. 255. 255. 255. 255. 255.
      255. 255. 255. 255. 255. 255. 255. 255. 255. 255. 255. 255. 255.
      255. 255. 255. 255. 255. 255. 255. 255. 255. 255. 255. 255. 255.
      255. 255. 255. 255. 255. 255. 255. 255. 255. 255. 255. 255. 255.
      255. 255. 255. 255. 255. 255. 255. 255. 255. 255. 255. 255. 255.
      255. 255. 255. 255. 255. 255. 255. 255. 255. 255. 255. 255. 255.
      255. 255. 255. 255. 255. 255. 255. 255. 255. 255. 255. 255. 255.
      255. 255. 255. 255. 255. 255. 255. 255. 255. 255. 255. 255. 255.
      255. 255. 255. 255. 255. 255. 255. 255. 255. 255. 255. 255. 255.
      255. 255. 255. 255. 255. 255. 255. 255. 255. 255. 255. 255. 255.
      255. 255. 255. 255. 255. 255. 255. 255. 255. 255. 255. 255. 255.
      255. 255. 255. 255. 255. 255. 255. 255. 255. 255. 255. 255. 255.
      255. 255. 255. 255. 255. 255. 255. 255. 255. 255. 255. 255. 255.
      255. 255. 255. 255. 255. 255. 255. 255. 255. 255. 255. 255. 255.
      255. 255. 255. 255. 255. 255. 255. 255. 255. 255. 255. 255. 255.
      255. 255. 255. 255. 255. 255. 255. 255. 255. 255. 255. 255. 255.
      255. 255. 255. 255. 255. 255. 255. 255. 255. 255. 255. 255. 255.
      255. 255. 255. 255. 255. 255. 255. 255. 255. 255. 255. 255. 255.
      255. 255. 255. 255. 255. 255. 255. 255. 255. 255. 255. 255. 255.
      255. 255. 255. 255. 255. 255. 255. 255. 255. 255. 255. 255. 255.
      255. 255. 255. 255. 255. 255. 255. 255. 255. 255. 255. 255. 255.
      255. 255. 255. 255. 255. 255. 255. 255. 255. 255. 255. 255. 255.
      255. 255. 255. 255. 255. 255. 255. 255. 255. 255. 255. 255. 255.
      255. 255. 255. 255. 255. 255. 255. 255. 255. 255. 255. 255. 255.
      255. 255. 255. 255. 255. 255. 255. 255. 255. 255. 255. 255. 255.
      255. 255. 255. 255. 255. 255. 255. 255. 255. 255. 255. 255. 255.
      255. 255. 255. 255. 255. 255. 255. 255. 255. 255. 255. 255. 255.
      255. 255. 255. 255. 255. 255. 255. 255. 255. 255. 255. 255. 255.
      255. 255. 255. 255. 255. 255. 255. 255. 255. 255. 255. 255. 255.
      255. 255. 255. 255. 255. 255. 255. 255. 255. 255. 255. 255. 255.
      255. 255. 255. 255. 255. 255. 255. 255. 255. 255. 255. 255. 255.
      255. 255. 255. 255. 255. 255. 255. 255. 255. 255. 255. 255. 255.
      255. 255. 255. 255. 255. 255. 255. 255. 255. 255. 255. 255. 255.
      255. 255. 255. 255. 255. 255. 255. 255. 255. 255. 255. 255. 255.
      255. 255. 255. 255. 255. 255. 255. 255. 255. 255. 255. 255. 255.
      255. 255. 255. 255. 255. 255. 255. 255. 255. 255. 255. 255. 255.
      255. 255. 255. 255. 255. 255. 255. 255. 255. 255. 255. 255. 255.
      255. 255. 255. 255. 255. 255. 255. 255. 255. 255. 255. 255. 255.
      255. 255. 255. 255. 255. 255. 255. 255. 255. 255. 255. 255. 255.
      255. 255. 255. 255. 255. 255. 255. 255. 255. 255. 255. 255. 255.
      255. 255. 255. 255. 255. 255. 255. 255. 255. 255. 255. 255. 255.
      255. 255. 255. 255. 255. 255. 255. 255. 255. 255. 255. 255. 255.
      255. 255. 255. 255. 255. 255. 255. 255. 255. 255. 255. 255. 255.
      255. 255. 255. 255. 255. 255. 255. 255. 255. 255. 255. 255. 255.
      255. 255. 255. 255. 255. 255. 255. 255. 255. 255. 255. 255. 255.
      255. 255. 255. 255. 255. 255. 255. 255. 255. 255. 255. 255. 255.
      255. 255. 255. 255. 255. 255. 255. 255. 255. 255. 255. 255. 255.
      255. 255. 255. 255. 255. 255. 255. 255. 255. 255. 255. 255. 255.
      255. 255. 255. 255. 255. 255. 255. 255. 255. 255. 255. 255. 255.
      255. 255. 255. 255. 255. 255. 255. 255. 255. 255. 255. 255. 255.
      255. 255. 255. 255. 255. 255. 255. 255. 255. 255. 255. 255. 255.
      255. 255. 255. 255. 255. 255. 255. 255. 255. 255. 255. 255. 255.
      255. 255. 255. 255. 255. 255. 255. 255. 255. 255. 255. 255. 255.
      255. 255. 255. 255. 255. 255. 255. 255. 255. 255. 255. 255. 255.
      255. 255. 255. 255. 255. 255. 255. 255. 255. 255. 255. 255. 255.
      255. 255. 255. 255. 255. 255. 255. 255. 255. 255. 255. 255. 255.
      255. 255. 255. 255. 255. 255. 255. 255. 255. 255. 255. 255. 255.
      255. 255. 255. 255. 255. 255. 255. 255. 255. 255. 255. 255. 255.
      255. 255. 255. 255. 255. 255. 255. 255. 255. 255. 255. 255. 255.
      255. 255. 255. 255. 255. 255. 255. 255. 255. 255. 255. 255. 255.
      255. 255. 255. 255. 255. 255. 255. 255. 255. 255. 255. 255. 255.
      255. 255. 255. 255. 255. 255. 255. 255. 255. 255. 255. 255. 255.
      255. 255. 255. 255. 255. 255. 255. 255. 255. 255. 255. 255. 255.
      255. 255. 255. 255. 255. 255. 255. 255. 255. 255. 255. 255. 255.
      255. 255. 255. 255. 255. 255. 255. 255. 255. 255. 255. 255. 255.
      255. 255. 255. 255. 255. 255. 255. 255. 255. 255. 255. 255. 255.
      255. 255. 255. 255. 255. 255. 255. 255. 255. 255. 255. 255. 255.
      255. 255. 255. 255. 255. 255. 255. 255. 255. 255. 255. 255. 255.
      255.</_>
    <_>
      251. 255. 254. 255. 254. 255. 251. 255. 255. 255. 247. 255. 247.
      255. 161. 255. 255. 255. 255. 255. 251. 255. 255. 255. 244. 255.
      240. 255. 154. 255. 247. 255. 247. 255. 243. 255. 255. 255. 244.
      255. 240. 255. 154. 255. 255. 255. 255. 255. 255. 255. 255. 255.
      255. 255. 255. 255. 168. 255. 244. 255. 240. 255. 240. 255. 220.
      203. 204. 255. 240. 255. 255. 255. 255. 255. 255. 255. 223. 255.
      255. 255. 182. 255. 255. 255. 240. 255. 255. 255. 251. 255. 240.
      255. 255. 255. 251. 255. 239. 255. 255. 255. 239. 255. 240. 255.
      255. 255. 255. 255. 240. 255. 255. 255. 255. 255. 240. 255. 255.
      255. 255. 255. 240. 255. 255. 255. 255. 255. 240. 255. 255. 255.
      255. 255. 255. 255. 255. 255. 255. 255. 255. 255. 255. 255. 255.
      255. 255. 255. 255. 255. 255. 255. 255. 255. 255. 255. 255. 255.
      255. 255. 255. 255. 255. 255. 255. 255. 255. 255. 255. 255. 255.
      255. 255. 255. 255. 255. 255. 255. 255. 255. 255. 255. 255. 255.
      255. 255. 255. 255. 255. 255. 255. 255. 255. 255. 255. 255. 255.
      255. 255. 255. 255. 255. 255. 255. 255. 255. 255. 255. 255. 255.
      255. 255. 255. 255. 255. 255. 255. 255. 255. 255. 255. 255. 255.
      255. 255. 255. 255. 255. 255. 255. 255. 255. 255. 255. 255. 255.
      255. 255. 255. 255. 255. 255. 255. 255. 255. 255. 255. 255. 255.
      255. 255. 255. 255. 255. 255. 255. 255. 255. 244. 239. 255. 216.
      187. 237. 223. 183. 197. 128. 128. 199. 255. 244. 244. 255. 244.
      162. 191. 216. 202. 252. 172. 128. 255. 184. 244. 164. 174. 255.
      255. 255. 255. 255. 255. 255. 255. 255. 255. 255. 255. 255. 255.
      255. 255. 255. 255. 255. 255. 255. 255. 255. 255. 255. 255. 255.
      255. 255. 255. 255. 255. 255. 255. 255. 255. 255. 255. 255. 255.
      255. 255. 255. 255. 255. 255. 255. 255. 255. 255. 255. 255. 255.
      255. 255. 255. 255. 255. 255. 255. 255. 255. 255. 255. 255. 255.
      255. 255. 255. 255. 255. 255. 255. 255. 255. 255. 255. 255. 255.
      255. 255. 255. 255. 255. 255. 255. 255. 255. 255. 255. 255. 255.
      255. 255. 255. 255. 255. 255. 255. 255. 255. 255. 255. 255. 255.
      255. 255. 255. 255. 255. 255. 255. 255. 255. 255. 255. 255. 255.
      255. 255. 255. 255. 255. 255. 255. 255. 255. 255. 255. 255. 255.
      255. 255. 255. 255. 255. 255. 255. 255. 255. 255. 255. 255. 255.
      255. 255. 255. 255. 255. 255. 255. 255. 255. 255. 255. 255. 255.
      255. 255. 255. 255. 255. 255. 255. 255. 255. 255. 255. 255. 255.
      255. 255. 255. 255. 255. 255. 255. 255. 255. 255. 255. 255. 255.
      255. 255. 255. 255. 255. 255. 255. 255. 255. 255. 255. 255. 255.
      255. 255. 255. 255. 255. 255. 255. 255. 255. 255. 255. 255. 255.
      255. 255. 255. 255. 255. 255. 255. 255. 255. 255. 255. 255. 255.
      255. 255. 255. 255. 255. 255. 255. 255. 255. 255. 255. 255. 255.
      255. 255. 255. 255. 255. 255. 255. 255. 255. 255. 255. 255. 255.
      255. 255. 255. 255. 255. 255. 255. 255. 255. 255. 255. 255. 255.
      255. 255. 255. 255. 255. 255. 255. 255. 255. 255. 255. 255. 255.
      255. 255. 255. 255. 255. 255. 255. 255. 255. 255. 255. 255. 255.
      255. 255. 255. 255. 255. 255. 255. 255. 255. 255. 255. 255. 255.
      255. 255. 255. 255. 255. 255. 255. 255. 255. 255. 255. 255. 255.
      255. 255. 255. 255. 255. 255. 255. 255. 255. 255. 255. 255. 255.
      255. 255. 255. 255. 255. 255. 255. 255. 255. 255. 255. 255. 255.
      255. 255. 255. 255. 255. 255. 255. 255. 255. 255. 255. 255. 255.
      255. 255. 255. 255. 255. 255. 255. 255. 255. 255. 255. 255. 255.
      255. 255. 255. 255. 255. 255. 255. 255. 255. 255. 255. 255. 255.
      255. 255. 255. 255. 255. 255. 255. 255. 255. 255. 255. 255. 255.
      255. 255. 255. 255. 255. 255. 255. 255. 255. 255. 255. 255. 255.
      255. 255. 255. 255. 255. 255. 255. 255. 255. 255. 255. 255. 255.
      255. 255. 240. 255. 255. 255. 255. 255. 255. 255. 240. 255. 255.
      255. 255. 255. 128. 255. 255. 255. 255. 255. 254. 255. 255. 255.
      255. 255. 255. 255. 255. 255. 255. 255. 255. 255. 255. 255. 255.
      255. 255. 255. 240. 255. 255. 255. 255. 255. 251. 255. 251. 255.
      255. 255. 254. 255. 255. 255. 250. 255. 255. 255. 251. 255. 255.
      255. 240. 255. 255. 255. 255. 251. 251. 249. 239. 255. 255. 250.
      240. 255. 255. 255. 255. 195. 255. 249. 239. 255. 255. 195. 255.
      251. 251. 255. 255. 250. 247. 249. 239. 255. 255. 195. 255. 255.
      255. 255. 255. 250. 240. 249. 239. 255. 255. 251. 247. 251. 247.
      255. 255. 249. 239. 249. 239. 255. 255. 255. 255. 251. 251. 255.
      150. 194. 201. 153. 142. 178. 219. 162. 169. 170. 152. 157. 203.
      154. 160. 148. 146. 162. 150. 195. 183. 149. 148. 151. 164. 163.
      184. 151. 171. 143. 170. 173. 149. 148. 145. 244. 201. 244. 201.
      199. 199. 198. 216. 219. 215. 202. 204. 200. 228. 215. 244. 215.
      201. 200. 198. 200. 197. 202. 200. 202. 218. 214. 201. 203. 255.
      255. 255. 255. 255. 255. 255. 255. 250. 255. 250. 255. 255. 255.
      255. 255. 255. 255. 255. 255. 255. 255. 255. 255. 250. 255. 250.
      255. 255. 255. 255. 255. 255. 255. 255. 255. 255. 255. 255. 255.
      247. 255. 247. 255. 255. 255. 255. 255. 255. 255. 255. 255. 255.
      255. 255. 255. 247. 255. 247. 255. 255. 255. 255. 255. 255. 255.
      255. 255. 255. 255. 255. 255. 239. 255. 230. 255. 255. 255. 255.
      255. 255. 255. 255. 255. 255. 255. 255. 255. 255. 255. 243. 255.
      255. 255. 255. 255. 255. 255. 255. 255. 255. 255. 255. 255. 255.
